{"learner":{"attributes":{"best_iteration":"99","best_ntree_limit":"100","scikit_learn":"{\"use_label_encoder\": true, \"n_estimators\": 100, \"objective\": \"binary:logistic\", \"max_depth\": 6, \"learning_rate\": null, \"verbosity\": null, \"booster\": null, \"tree_method\": null, \"gamma\": null, \"min_child_weight\": null, \"max_delta_step\": null, \"subsample\": null, \"colsample_bytree\": null, \"colsample_bylevel\": null, \"colsample_bynode\": null, \"reg_alpha\": null, \"reg_lambda\": null, \"scale_pos_weight\": null, \"base_score\": null, \"missing\": NaN, \"num_parallel_tree\": null, \"random_state\": null, \"n_jobs\": null, \"monotone_constraints\": null, \"interaction_constraints\": null, \"importance_type\": null, \"gpu_id\": null, \"validate_parameters\": null, \"predictor\": null, \"enable_categorical\": false, \"classes_\": [0, 1], \"n_classes_\": 2, \"_le\": {\"classes_\": [0, 1]}, \"_estimator_type\": \"classifier\"}"},"feature_names":[],"feature_types":[],"gradient_booster":{"model":{"gbtree_model_param":{"num_trees":"100","size_leaf_vector":"0"},"tree_info":[0,0,0,0,0,0,0,0,0,0,0,0,0,0,0,0,0,0,0,0,0,0,0,0,0,0,0,0,0,0,0,0,0,0,0,0,0,0,0,0,0,0,0,0,0,0,0,0,0,0,0,0,0,0,0,0,0,0,0,0,0,0,0,0,0,0,0,0,0,0,0,0,0,0,0,0,0,0,0,0,0,0,0,0,0,0,0,0,0,0,0,0,0,0,0,0,0,0,0,0],"trees":[{"base_weights":[-1.5187057E0,-9.3560606E-1,-1.5551045E0,-1.0970018E0,-7.423935E-1,-1.5254712E0,-1.992381E0,-1.192233E0,-1.4285715E-1,-9.3333334E-1,-4.3654823E-1,-1.5715458E0,-1.2557335E0,-1.286908E0,-9.5E-1,1.7391305E-1,-1.1428572E0,-7.5E-1,-1.2916666E0,6.0606062E-2,-6.666667E-1,-1.5341141E0,-1.7215285E0,-1.030303E0,-1.4303405E0,-1.3214285E0,-6.666667E-1,-3.6734694E-1,-1.1652174E0,-2.2222222E-1,6.086956E-1,-1.2340425E0,-5.939394E-1,-1.6E0,-8.8E-1,5.6E-1,-1.2E0,-9.010989E-1,-1.6666667E-1,-1.6324384E0,-1.4835641E0,-9.3601006E-1,-1.3391304E0,-1.2843791E0,-1.6197441E0,-1.2334495E0,-1.6981132E0,-1.0526316E-1,-1.3333334E0,-9.3333334E-1,-1.0526316E-1,4E-1,-1.266055E0,-6E-1,5.4545456E-1,1.1764706E-1,1.2E0,-5.714286E-1,-1.3513514E0,-1.4084508E-1,-8.979592E-1,-1.7391304E0,-0E0,1E0,-1.1304348E0,2.1052632E-1,1.25E0,-6.666667E-1,-1.3846154E0,5.185185E-1,-8.8E-1,-1.0769231E0,-1.6407658E0,-1.5237612E0,-1.2870967E0,-1.0108192E0,-5.974026E-1,-1.3628318E0,-0E0,-2.4E-1,-1.3131868E0,-1.6303142E0,-4E-1],"categories":[],"categories_nodes":[],"categories_segments":[],"categories_sizes":[],"default_left":[true,true,true,true,true,true,false,true,true,true,true,true,true,true,true,true,false,true,true,true,true,true,false,true,true,true,true,true,true,true,true,true,true,true,true,true,false,true,true,true,true,true,true,true,true,false,false,false,false,false,false,false,false,false,false,false,false,false,false,false,false,false,false,false,false,false,false,false,false,false,false,false,false,false,false,false,false,false,false,false,false,false,false],"id":0,"left_children":[1,3,5,7,9,11,-1,13,15,17,19,21,23,25,27,29,-1,31,33,35,37,39,-1,41,43,45,47,49,51,53,55,57,59,61,63,65,-1,67,69,71,73,75,77,79,81,-1,-1,-1,-1,-1,-1,-1,-1,-1,-1,-1,-1,-1,-1,-1,-1,-1,-1,-1,-1,-1,-1,-1,-1,-1,-1,-1,-1,-1,-1,-1,-1,-1,-1,-1,-1,-1,-1],"loss_changes":[9.300293E1,7.418091E0,5.122168E1,1.2709717E1,6.7901154E0,4.6819336E1,0E0,1.7301178E0,4.6335406E0,3.9583359E0,5.674819E0,1.616211E1,2.1267578E1,1.0406952E0,4.587845E0,2.115942E0,0E0,3.1951332E0,1.6383324E0,1.1059394E1,3.8058605E0,1.0946289E1,0E0,6.1940613E0,6.849182E0,6.8925476E-1,2.3859649E0,1.7188686E0,5.044117E0,2.2848485E0,1.5283887E0,1.4113045E-1,5.5556984E0,2.782608E0,7.0156517E0,2.7510524E0,0E0,1.6556778E0,6.321481E0,2.411377E0,1.215332E1,4.443329E0,1.8250046E0,5.318451E0,1.1109619E0,0E0,0E0,0E0,0E0,0E0,0E0,0E0,0E0,0E0,0E0,0E0,0E0,0E0,0E0,0E0,0E0,0E0,0E0,0E0,0E0,0E0,0E0,0E0,0E0,0E0,0E0,0E0,0E0,0E0,0E0,0E0,0E0,0E0,0E0,0E0,0E0,0E0,0E0],"parents":[2147483647,0,0,1,1,2,2,3,3,4,4,5,5,7,7,8,8,9,9,10,10,11,11,12,12,13,13,14,14,15,15,17,17,18,18,19,19,20,20,21,21,23,23,24,24,25,25,26,26,27,27,28,28,29,29,30,30,31,31,32,32,33,33,34,34,35,35,37,37,38,38,39,39,40,40,41,41,42,42,43,43,44,44],"right_children":[2,4,6,8,10,12,-1,14,16,18,20,22,24,26,28,30,-1,32,34,36,38,40,-1,42,44,46,48,50,52,54,56,58,60,62,64,66,-1,68,70,72,74,76,78,80,82,-1,-1,-1,-1,-1,-1,-1,-1,-1,-1,-1,-1,-1,-1,-1,-1,-1,-1,-1,-1,-1,-1,-1,-1,-1,-1,-1,-1,-1,-1,-1,-1,-1,-1,-1,-1,-1,-1],"split_conditions":[5E-1,5E-1,8.6944443E-1,7.631579E-1,4.615E2,1.0407566E3,-5.977143E-1,5E-1,5.85E2,3.77195E2,4.9075E2,5.772222E-1,5E-1,7.798695E2,8.78071E-2,5E-1,-3.4285718E-1,2.4491974E2,4.1695273E-1,7.173684E-1,6.2911355E-1,5E-1,-5.164586E-1,1.855E3,5.183333E-1,6.5757054E-1,9.88E2,2.613E2,2.21E2,8.4842104E-1,7.873684E-1,5E-1,5E-1,4.85E1,4.4813466E-1,4E1,-3.6E-1,4.212921E-1,7.2292995E-1,2.15E1,8.485E2,1.675E3,7.372222E-1,1.95E1,6.85E1,-3.7003484E-1,-5.09434E-1,-3.157895E-2,-4.0000004E-1,-2.8E-1,-3.157895E-2,1.20000005E-1,-3.798165E-1,-1.8E-1,1.6363637E-1,3.529412E-2,3.6E-1,-1.7142859E-1,-4.0540543E-1,-4.2253524E-2,-2.6938775E-1,-5.217391E-1,-0E0,3E-1,-3.3913043E-1,6.31579E-2,3.75E-1,-2.0000002E-1,-4.1538465E-1,1.5555556E-1,-2.64E-1,-3.2307696E-1,-4.9222976E-1,-4.5712838E-1,-3.8612905E-1,-3.0324578E-1,-1.7922078E-1,-4.0884957E-1,-0E0,-7.2000004E-2,-3.9395604E-1,-4.890943E-1,-1.20000005E-1],"split_indices":[12,9,15,15,1,1,0,2,1,1,1,15,8,1,15,2,0,1,15,15,15,5,0,1,15,15,1,1,1,15,15,5,13,0,15,0,0,15,15,0,1,1,15,0,0,0,0,0,0,0,0,0,0,0,0,0,0,0,0,0,0,0,0,0,0,0,0,0,0,0,0,0,0,0,0,0,0,0,0,0,0,0,0],"split_type":[0,0,0,0,0,0,0,0,0,0,0,0,0,0,0,0,0,0,0,0,0,0,0,0,0,0,0,0,0,0,0,0,0,0,0,0,0,0,0,0,0,0,0,0,0,0,0,0,0,0,0,0,0,0,0,0,0,0,0,0,0,0,0,0,0,0,0,0,0,0,0,0,0,0,0,0,0,0,0,0,0,0,0],"sum_hessian":[4.4495E3,2.63E2,4.1865E3,1.4075E2,1.2225E2,3.925E3,2.615E2,1.2775E2,1.3E1,7.4E1,4.825E1,3.34825E3,5.7675E2,8.875E1,3.9E1,1.05E1,2.5E0,5.1E1,2.3E1,1.55E1,3.275E1,2.6885E3,6.5975E2,2.5475E2,3.22E2,8.3E1,5.75E0,1.125E1,2.775E1,5.75E0,4.75E0,1.075E1,4.025E1,1.15E1,1.15E1,1.15E1,4E0,2.175E1,1.1E1,9.0225E2,1.78625E3,1.9825E2,5.65E1,1.8625E2,1.3575E2,7.075E1,1.225E1,3.75E0,2E0,2.75E0,8.5E0,1.5E0,2.625E1,4E0,1.75E0,3.25E0,1.5E0,2.5E0,8.25E0,1.675E1,2.35E1,1.05E1,1E0,1E0,1.05E1,8.5E0,3E0,1.625E1,5.5E0,5.75E0,5.25E0,1.525E1,8.87E2,1.47725E3,3.09E2,1.6075E2,3.75E1,5.55E1,1E0,5.25E0,1.81E2,1.3425E2,1.5E0],"tree_param":{"num_deleted":"0","num_feature":"16","num_nodes":"83","size_leaf_vector":"0"}},{"base_weights":[-1.131808E0,-6.9112194E-1,-1.1601003E0,-8.097977E-1,-5.503265E-1,-1.1350327E0,-1.5436214E0,-8.8226575E-1,-9.8858654E-2,-4.715742E-1,-1.2095082E0,-1.1723754E0,-9.205066E-1,-9.5442605E-1,-6.99588E-1,1.5633528E-1,-9.192548E-1,-5.089017E-1,1.3462973E0,-1.5423765E0,-4.5640227E-1,-1.219409E0,-1.082982E0,-7.4548924E-1,-1.0591336E0,-1.0887411E0,-8.088838E-1,-2.6127642E-1,-8.506844E-1,-1.592076E-1,5.0006205E-1,-6.588678E-1,-2.5188136E-1,3.6180818E-1,-9.6727324E-1,-1.1696272E0,-1.3076025E0,-1.2062776E0,-9.488213E-1,-6.696716E-1,-1.0350317E0,-1.2763784E0,-9.492846E-1,-1.2646896E0,-8.3880603E-1,-6.059371E-1,-1.2229592E0,-7.1665114E-1,7.699874E-2,3.287948E-1,-9.2793757E-1,-4.5934808E-1,4.4343472E-1,9.068181E-2,1.005434E0,-3.8934308E-1,-8.366198E-1,2.7757454E-1,-4.8659748E-1,-1.1351782E0,-1.3228993E0,-1.3115097E0,-4.3024132E-1,-1.1502984E0,-1.2879671E0,-1.1105736E0,-8.891886E-1,-5.965576E-1,-1.0725307E0,-8.266632E-1,-1.2536966E0,-1.6945288E-1,-1.3068616E0,-3.4985164E-1,-9.948478E-1],"categories":[],"categories_nodes":[],"categories_segments":[],"categories_sizes":[],"default_left":[true,true,true,true,true,true,false,true,true,true,true,true,true,true,true,true,false,true,false,false,true,true,true,true,true,true,true,true,true,true,true,true,true,false,false,true,true,true,true,true,true,true,true,false,false,false,false,false,false,false,false,false,false,false,false,false,false,false,false,false,false,false,false,false,false,false,false,false,false,false,false,false,false,false,false],"id":1,"left_children":[1,3,5,7,9,11,-1,13,15,17,19,21,23,25,27,29,-1,31,-1,-1,33,35,37,39,41,43,45,47,49,51,53,55,57,-1,-1,59,61,63,65,67,69,71,73,-1,-1,-1,-1,-1,-1,-1,-1,-1,-1,-1,-1,-1,-1,-1,-1,-1,-1,-1,-1,-1,-1,-1,-1,-1,-1,-1,-1,-1,-1,-1,-1],"loss_changes":[5.182422E1,3.8503723E0,3.6365234E1,6.9912796E0,5.6962433E0,2.876416E1,0E0,9.7421265E-1,3.0403087E0,8.113548E0,2.365387E0,1.2004883E1,1.2723907E1,8.110962E-1,2.3615875E0,1.3168805E0,0E0,3.996645E0,0E0,0E0,2.5123553E0,7.5532227E0,1.7077026E1,4.785187E0,6.1486206E0,7.91275E-1,3.076294E0,1.8181705E0,2.9083576E0,1.4166747E0,1.088388E0,2.9120426E0,5.281523E0,0E0,0E0,5.5303955E0,1.965332E0,1.1265869E0,4.146179E0,5.2688065E0,1.2396317E0,3.1756744E0,5.353256E0,0E0,0E0,0E0,0E0,0E0,0E0,0E0,0E0,0E0,0E0,0E0,0E0,0E0,0E0,0E0,0E0,0E0,0E0,0E0,0E0,0E0,0E0,0E0,0E0,0E0,0E0,0E0,0E0,0E0,0E0,0E0,0E0],"parents":[2147483647,0,0,1,1,2,2,3,3,4,4,5,5,7,7,8,8,9,9,10,10,11,11,12,12,13,13,14,14,15,15,17,17,20,20,21,21,22,22,23,23,24,24,25,25,26,26,27,27,28,28,29,29,30,30,31,31,32,32,35,35,36,36,37,37,38,38,39,39,40,40,41,41,42,42],"right_children":[2,4,6,8,10,12,-1,14,16,18,20,22,24,26,28,30,-1,32,-1,-1,34,36,38,40,42,44,46,48,50,52,54,56,58,-1,-1,60,62,64,66,68,70,72,74,-1,-1,-1,-1,-1,-1,-1,-1,-1,-1,-1,-1,-1,-1,-1,-1,-1,-1,-1,-1,-1,-1,-1,-1,-1,-1,-1,-1,-1,-1,-1,-1],"split_conditions":[5E-1,5E-1,8.6944443E-1,7.631579E-1,7.49409E-1,1.0407566E3,-4.6308646E-1,5E-1,5.85E2,7.4263155E-1,4.745E2,5E-1,5E-1,3.785259E-1,8.416742E-2,5E-1,-2.7577645E-1,4.615E2,4.038892E-1,-4.6271297E-1,6.24E2,5.283333E-1,6.49E2,4.75E1,5E-1,4.095E2,6.5757054E-1,2.25E1,2.21E2,8.4842104E-1,7.873684E-1,5E-1,4.9075E2,1.0854246E-1,-2.90182E-1,5E-1,5E-1,5.172222E-1,5E-1,2.15E3,5.127778E-1,1.08E3,2.15E1,-3.794069E-1,-2.516418E-1,-1.8178114E-1,-3.6688775E-1,-2.1499535E-1,2.3099624E-2,9.8638445E-2,-2.783813E-1,-1.3780443E-1,1.3303041E-1,2.7204545E-2,3.0163023E-1,-1.1680293E-1,-2.5098595E-1,8.327237E-2,-1.4597926E-1,-3.4055346E-1,-3.968698E-1,-3.9345294E-1,-1.290724E-1,-3.4508952E-1,-3.8639015E-1,-3.331721E-1,-2.667566E-1,-1.789673E-1,-3.2175922E-1,-2.4799897E-1,-3.7610897E-1,-5.0835866E-2,-3.9205852E-1,-1.04955494E-1,-2.9845434E-1],"split_indices":[12,9,15,15,15,1,0,2,1,15,1,9,8,15,15,2,0,1,0,0,1,15,1,0,5,1,15,0,1,15,15,13,1,0,0,4,3,15,5,1,15,1,0,0,0,0,0,0,0,0,0,0,0,0,0,0,0,0,0,0,0,0,0,0,0,0,0,0,0,0,0,0,0,0,0],"split_type":[0,0,0,0,0,0,0,0,0,0,0,0,0,0,0,0,0,0,0,0,0,0,0,0,0,0,0,0,0,0,0,0,0,0,0,0,0,0,0,0,0,0,0,0,0,0,0,0,0,0,0,0,0,0,0,0,0,0,0,0,0,0,0,0,0,0,0,0,0,0,0,0,0,0,0],"sum_hessian":[4.219872E3,2.5610815E2,3.9637637E3,1.3639223E2,1.19715935E2,3.7242964E3,2.3946744E2,1.2355675E2,1.2835477E1,1.08472176E2,1.1243761E1,3.168318E3,5.5597833E2,8.5541855E1,3.8014885E1,1.040753E1,2.4279463E0,1.0699523E2,1.4769464E0,7.070584E0,4.1731772E0,2.067751E3,1.1005671E3,2.4855463E2,3.0742368E2,4.1116505E1,4.4425354E1,1.0444865E1,2.757002E1,5.7061114E0,4.701419E0,6.658234E1,4.041289E1,1.7162364E0,2.4569411E0,1.3308185E3,7.369325E2,5.69342E2,5.312251E2,1.9960124E2,4.8953384E1,9.967684E1,2.0774684E2,2.1747034E1,1.936947E1,3.1466393E1,1.29589615E1,3.9751313E0,6.469734E0,1.4946129E0,2.6075407E1,3.9677742E0,1.7383372E0,3.2489882E0,1.4524307E0,2.7728344E1,3.8853992E1,1.23567705E1,2.8056122E1,1.0934618E3,2.3735664E2,7.3317267E2,3.7598581E0,3.467834E2,2.225586E2,1.3834476E2,3.9288037E2,1.7104031E2,2.856092E1,2.7514753E1,2.1438633E1,2.847187E0,9.682966E1,1.528849E1,1.9245834E2],"tree_param":{"num_deleted":"0","num_feature":"16","num_nodes":"75","size_leaf_vector":"0"}},{"base_weights":[-9.000531E-1,-8.7513065E-1,-1.3419151E0,-5.189071E-1,-9.0082484E-1,-5.314956E-1,5.540322E-1,-9.542974E-1,-7.689367E-1,-6.4425504E-1,-4.039631E-1,9.2874104E-1,-9.538374E-2,-8.862034E-1,-1.0124468E0,-9.007763E-1,-6.021126E-1,-7.4101E-1,-4.3095532E-1,-3.1284133E-1,-8.236884E-1,-9.069351E-1,-6.674628E-1,-9.7237873E-1,-1.0817984E0,-1.1028228E0,-8.163322E-1,-8.0701E-1,-5.104142E-1,-6.704216E-1,-1.0128053E0,-5.3017694E-1,2.759615E-1,-3.6170352E-1,7.4091005E-1,-9.795302E-1,-4.122394E-1,-9.25557E-1,-7.76736E-1,-6.9344956E-1,4.3747792E-1,-1.0091652E0,-8.8912964E-1,-1.0253931E0,-1.1917127E0,-1.110545E0,-3.7460712E-1,-7.0678663E-1,-1.0255308E0,-8.303351E-1,9.821569E-1,-7.4544317E-1,-3.9372775E-1],"categories":[],"categories_nodes":[],"categories_segments":[],"categories_sizes":[],"default_left":[true,true,false,true,true,true,true,true,true,true,true,false,false,true,true,true,true,true,true,true,true,true,true,true,true,true,true,true,true,false,false,false,false,false,false,false,false,false,false,false,false,false,false,false,false,false,false,false,false,false,false,false,false],"id":2,"left_children":[1,3,-1,5,7,9,11,13,15,17,19,-1,-1,21,23,25,27,29,31,33,35,37,39,41,43,45,47,49,51,-1,-1,-1,-1,-1,-1,-1,-1,-1,-1,-1,-1,-1,-1,-1,-1,-1,-1,-1,-1,-1,-1,-1,-1],"loss_changes":[4.0692627E1,3.249878E1,0E0,3.5991516E0,2.2948486E1,3.2247925E0,8.981806E-1,8.547363E0,2.0877136E1,2.300438E0,4.194313E0,0E0,0E0,4.413208E0,2.50354E0,8.346466E0,7.722061E0,9.697647E-1,3.092445E0,5.275406E0,8.8830185E-1,1.7252197E0,3.1630936E0,1.6165771E0,1.6278076E0,4.6629333E-1,8.122559E0,6.3293533E0,7.983078E0,0E0,0E0,0E0,0E0,0E0,0E0,0E0,0E0,0E0,0E0,0E0,0E0,0E0,0E0,0E0,0E0,0E0,0E0,0E0,0E0,0E0,0E0,0E0,0E0],"parents":[2147483647,0,0,1,1,3,3,4,4,5,5,6,6,7,7,8,8,9,9,10,10,13,13,14,14,15,15,16,16,17,17,18,18,19,19,20,20,21,21,22,22,23,23,24,24,25,25,26,26,27,27,28,28],"right_children":[2,4,-1,6,8,10,12,14,16,18,20,-1,-1,22,24,26,28,30,32,34,36,38,40,42,44,46,48,50,52,-1,-1,-1,-1,-1,-1,-1,-1,-1,-1,-1,-1,-1,-1,-1,-1,-1,-1,-1,-1,-1,-1,-1,-1],"split_conditions":[8.7842107E-1,5E-1,-4.0257457E-1,8.447368E-1,8.492457E2,5E-1,4.65E1,4.7055554E-1,5E-1,5E-1,7.068421E-1,2.7862233E-1,-2.8615123E-2,4.6166664E-1,5.772222E-1,5E-1,5E-1,4.15E1,7.631579E-1,6.858134E-1,4.745E2,4.55E1,5.85E1,5E-1,4.521019E1,6.65E1,5.3166664E-1,7.8E-1,1.9444445E-1,-2.0112649E-1,-3.0384162E-1,-1.5905309E-1,8.278845E-2,-1.0851106E-1,2.2227302E-1,-2.9385906E-1,-1.2367182E-1,-2.776671E-1,-2.3302081E-1,-2.0803487E-1,1.3124338E-1,-3.0274957E-1,-2.667389E-1,-3.0761796E-1,-3.5751384E-1,-3.3316353E-1,-1.1238214E-1,-2.12036E-1,-3.0765927E-1,-2.4910054E-1,2.9464707E-1,-2.2363296E-1,-1.1811833E-1],"split_indices":[15,12,0,15,1,9,0,15,9,2,15,0,0,15,15,5,5,0,15,15,1,0,0,9,0,0,15,15,15,0,0,0,0,0,0,0,0,0,0,0,0,0,0,0,0,0,0,0,0,0,0,0,0],"split_type":[0,0,0,0,0,0,0,0,0,0,0,0,0,0,0,0,0,0,0,0,0,0,0,0,0,0,0,0,0,0,0,0,0,0,0,0,0,0,0,0,0,0,0,0,0,0,0,0,0,0,0,0,0],"sum_hessian":[3.800847E3,3.6007346E3,2.001124E2,2.4367174E2,3.3570627E3,2.4134476E2,2.3269808E0,2.3841855E3,9.728774E2,1.25940834E2,1.15403915E2,1.2028353E0,1.1241455E0,1.1056677E3,1.2785178E3,5.4096106E2,4.319163E2,8.493804E1,4.1002796E1,9.62529E1,1.9151018E1,1.00707355E3,9.859411E1,8.1986163E2,4.5865616E2,1.5589546E2,3.850656E2,1.3112363E2,3.0079266E2,7.017851E1,1.4759529E1,3.617531E1,4.827489E0,9.2615105E1,3.6377923E0,1.2888603E1,6.2624154E0,8.757145E2,1.3135907E2,9.6692444E1,1.9016677E0,5.60891E2,2.589707E2,3.0993466E2,1.487215E2,1.5374013E2,2.1553395E0,2.5560048E2,1.2946512E2,1.299652E2,1.1584249E0,9.8004425E1,2.0278824E2],"tree_param":{"num_deleted":"0","num_feature":"16","num_nodes":"53","size_leaf_vector":"0"}},{"base_weights":[-7.2842306E-1,-7.0330656E-1,-1.2258736E0,-3.8742423E-1,-7.2780734E-1,-4.0219203E-1,3.658205E-1,-7.651447E-1,-5.295152E-1,-4.804536E-1,-2.7232444E-1,7.5941795E-1,-4.2506638E-1,-7.3133904E-1,-9.106432E-1,-4.0206409E-1,-6.4160615E-1,-2.739385E-1,-6.556619E-1,9.014505E-2,-3.7600437E-1,1.494638E-1,9.6356976E-1,-8.2438904E-1,-6.858632E-1,-8.626232E-1,-1.0081722E0,5.554368E-2,-4.3850547E-1,-5.1189953E-1,-8.271919E-1,-4.764937E-1,-6.4344645E-2,-5.7365626E-1,-1.0803266E0,3.414097E-1,-6.5113384E-1,-9.455128E-1,-2.8883E-1,-7.558564E-1,-9.2671305E-1,-7.1683687E-1,-5.4676276E-1,-9.053009E-1,-4.1648936E-1,-1.0179714E0,-1.7470433E-1,3.728345E-1,-6.883659E-1,-6.577342E-1,-3.4682202E-1,-7.511123E-1,-4.1046304E-1,-4.7481918E-1,-9.0285397E-1],"categories":[],"categories_nodes":[],"categories_segments":[],"categories_sizes":[],"default_left":[true,true,false,true,true,true,true,true,true,true,true,true,false,true,true,true,true,true,true,true,true,false,false,true,true,true,true,true,true,true,true,false,false,false,false,false,false,false,false,false,false,false,false,false,false,false,false,false,false,false,false,false,false,false,false],"id":3,"left_children":[1,3,-1,5,7,9,11,13,15,17,19,21,-1,23,25,27,29,31,33,35,37,-1,-1,39,41,43,45,47,49,51,53,-1,-1,-1,-1,-1,-1,-1,-1,-1,-1,-1,-1,-1,-1,-1,-1,-1,-1,-1,-1,-1,-1,-1,-1],"loss_changes":[4.133789E1,2.4620117E1,0E0,2.7471924E0,2.1693604E1,2.203968E0,1.8849103E0,1.16779785E1,6.545334E0,4.9595604E0,3.3669071E0,3.179016E-1,0E0,8.073364E0,1.327179E0,3.78508E0,5.635376E0,2.8099322E0,2.0312347E0,4.0466614E0,3.1602898E0,0E0,0E0,3.9646301E0,5.541992E0,5.7394714E0,1.0377197E0,4.3924665E0,3.9726524E0,3.3502922E0,2.2886658E0,0E0,0E0,0E0,0E0,0E0,0E0,0E0,0E0,0E0,0E0,0E0,0E0,0E0,0E0,0E0,0E0,0E0,0E0,0E0,0E0,0E0,0E0,0E0,0E0],"parents":[2147483647,0,0,1,1,3,3,4,4,5,5,6,6,7,7,8,8,9,9,10,10,11,11,13,13,14,14,15,15,16,16,17,17,18,18,19,19,20,20,23,23,24,24,25,25,26,26,27,27,28,28,29,29,30,30],"right_children":[2,4,-1,6,8,10,12,14,16,18,20,22,-1,24,26,28,30,32,34,36,38,-1,-1,40,42,44,46,48,50,52,54,-1,-1,-1,-1,-1,-1,-1,-1,-1,-1,-1,-1,-1,-1,-1,-1,-1,-1,-1,-1,-1,-1,-1,-1],"split_conditions":[8.7842107E-1,5E-1,-3.677621E-1,8.294737E-1,1.0407566E3,4.615E2,5.35E1,5.772222E-1,5E-1,5E-1,4.93805E2,8.442105E-1,-1.2751992E-1,5E-1,4.521019E1,2.15E1,5.183333E-1,4.3105263E-1,6.433121E-1,7.173684E-1,2.25E1,4.4839144E-2,2.8907093E-1,4.24837E1,8.485E2,5E-1,7.85E1,1.775E3,1.9444445E-1,5E-1,2.85E1,-1.429481E-1,-1.9303394E-2,-1.7209688E-1,-3.24098E-1,1.02422915E-1,-1.9534016E-1,-2.8365386E-1,-8.664901E-2,-2.2675693E-1,-2.780139E-1,-2.1505107E-1,-1.6402884E-1,-2.715903E-1,-1.2494681E-1,-3.0539143E-1,-5.24113E-2,1.1185036E-1,-2.0650977E-1,-1.9732027E-1,-1.0404661E-1,-2.2533369E-1,-1.2313891E-1,-1.4244576E-1,-2.708562E-1],"split_indices":[15,12,0,15,1,1,0,15,8,13,1,15,0,5,0,0,15,15,15,15,0,0,0,0,1,6,0,1,15,5,0,0,0,0,0,0,0,0,0,0,0,0,0,0,0,0,0,0,0,0,0,0,0,0,0],"split_type":[0,0,0,0,0,0,0,0,0,0,0,0,0,0,0,0,0,0,0,0,0,0,0,0,0,0,0,0,0,0,0,0,0,0,0,0,0,0,0,0,0,0,0,0,0,0,0,0,0,0,0,0,0,0,0],"sum_hessian":[3.3765664E3,3.2165737E3,1.5999257E2,2.3273953E2,2.9838342E3,2.2872137E2,4.018156E0,2.5086165E3,4.752177E2,1.4103217E2,8.768921E1,2.7095132E0,1.3086429E0,2.0405367E3,4.6807974E2,2.2451903E2,2.506987E2,6.590938E1,7.512279E1,1.9532673E1,6.815654E1,1.1138202E0,1.595693E0,6.642531E2,1.3762836E3,3.20246E2,1.4783376E2,1.6522013E1,2.0799701E2,1.4977715E2,1.0092156E2,3.2869907E1,3.3039467E1,6.4934364E1,1.0188418E1,1.4990806E1,4.5418673E0,7.740669E0,6.041587E1,4.028361E2,2.6141705E2,1.1222395E3,2.5404414E2,2.9134625E2,2.8899746E1,1.4589705E2,1.9367028E0,1.1931731E1,4.5902805E0,5.951466E1,1.4848235E2,4.2692566E1,1.0708457E2,1.9125593E1,8.179597E1],"tree_param":{"num_deleted":"0","num_feature":"16","num_nodes":"55","size_leaf_vector":"0"}},{"base_weights":[-5.8918124E-1,-5.643649E-1,-1.1527507E0,-6.3401586E-1,-4.5376393E-1,-5.973435E-1,-7.7721363E-1,-5.746423E-1,-3.5870782E-1,-5.380625E-1,-6.899594E-1,-4.0887296E-1,-8.032883E-1,-2.2137186E-1,-6.615172E-1,-2.8863662E-1,-4.5620757E-1,-5.725389E-1,-2.4298076E-1,-2.6840866E-1,-7.171731E-1,-2.186553E-1,-9.101436E-1,-6.691659E-1,-8.5358083E-1,5.356391E-1,-2.5554228E-1,-6.1696076E-1,-7.928735E-1,-4.322436E-1,-1.5072867E-1,-5.5483496E-1,-2.439856E-1,-5.3423196E-1,-7.0090634E-1,1.5272078E-1,-3.202216E-1,-3.4191E-1,8.430341E-1,-6.552994E-1,-8.2306623E-1,-3.1735933E-1,7.374343E-1,2.486744E-1,-1.1646669E0,-5.443498E-1,-9.0987146E-1,-9.1028214E-1,-6.9395465E-1,-2.7239776E-1,8.62537E-1,-2.0730269E-1,-7.4807E-1,-6.2583953E-1,4.1796315E-1,-8.0748177E-1,9.044526E-2,-5.4137E-1,-3.461809E-1,1.5779056E-1,-2.3099843E-1,-5.707933E-1,4.7162616E-1,-1.0538898E0,-1.6144936E-1],"categories":[],"categories_nodes":[],"categories_segments":[],"categories_sizes":[],"default_left":[true,true,false,true,true,true,true,true,true,true,true,true,true,true,true,true,true,true,true,true,true,true,true,true,true,true,true,true,true,true,true,true,true,false,false,false,false,false,false,false,false,false,false,false,false,false,false,false,false,false,false,false,false,false,false,false,false,false,false,false,false,false,false,false,false],"id":4,"left_children":[1,3,-1,5,7,9,11,13,15,17,19,21,23,25,27,29,31,33,35,37,39,41,43,45,47,49,51,53,55,57,59,61,63,-1,-1,-1,-1,-1,-1,-1,-1,-1,-1,-1,-1,-1,-1,-1,-1,-1,-1,-1,-1,-1,-1,-1,-1,-1,-1,-1,-1,-1,-1,-1,-1],"loss_changes":[4.140222E1,2.1913452E1,0E0,8.808838E0,1.2630035E1,7.3709106E0,3.0974426E0,1.4895233E1,4.158951E0,8.654129E0,6.0802917E0,2.2436876E0,1.6688232E0,2.678092E0,1.8102112E0,7.2255707E0,5.325325E0,3.4275818E0,2.8656945E0,3.127576E0,2.822052E0,2.1107788E0,2.2748823E0,2.364666E0,1.5214691E0,1.4410126E0,2.094318E0,2.998642E0,1.3118248E0,1.5012665E0,4.725127E0,3.1739693E0,5.4824867E0,0E0,0E0,0E0,0E0,0E0,0E0,0E0,0E0,0E0,0E0,0E0,0E0,0E0,0E0,0E0,0E0,0E0,0E0,0E0,0E0,0E0,0E0,0E0,0E0,0E0,0E0,0E0,0E0,0E0,0E0,0E0,0E0],"parents":[2147483647,0,0,1,1,3,3,4,4,5,5,6,6,7,7,8,8,9,9,10,10,11,11,12,12,13,13,14,14,15,15,16,16,17,17,18,18,19,19,20,20,21,21,22,22,23,23,24,24,25,25,26,26,27,27,28,28,29,29,30,30,31,31,32,32],"right_children":[2,4,-1,6,8,10,12,14,16,18,20,22,24,26,28,30,32,34,36,38,40,42,44,46,48,50,52,54,56,58,60,62,64,-1,-1,-1,-1,-1,-1,-1,-1,-1,-1,-1,-1,-1,-1,-1,-1,-1,-1,-1,-1,-1,-1,-1,-1,-1,-1,-1,-1,-1,-1,-1,-1],"split_conditions":[8.7842107E-1,5E-1,-3.4582523E-1,5E-1,6.025E2,5.1023203E-1,5E-1,5E-1,4.9944443E-1,1.125E3,5E-1,5.98E2,4.1E2,1.95E1,5.5833334E-1,4.1401275E-2,5E-1,4.2263245E1,2.25E1,8.447368E-1,4.3863758E1,7.621052E-1,2.95E1,5E-1,1.0405282E3,2.535E2,7.5E-1,5.5722225E-1,7.3944443E-1,3.05E1,2.65E1,7.916666E-1,5.094445E-1,-1.6026959E-1,-2.1027191E-1,4.5816235E-2,-9.606648E-2,-1.0257301E-1,2.5291023E-1,-1.9658984E-1,-2.4691989E-1,-9.52078E-2,2.2123031E-1,7.460232E-2,-3.4940007E-1,-1.6330494E-1,-2.7296144E-1,-2.7308464E-1,-2.081864E-1,-8.171933E-2,2.587611E-1,-6.219081E-2,-2.2442101E-1,-1.8775187E-1,1.2538895E-1,-2.4224454E-1,2.7133578E-2,-1.62411E-1,-1.0385427E-1,4.733717E-2,-6.9299534E-2,-1.7123799E-1,1.4148785E-1,-3.1616694E-1,-4.843481E-2],"split_indices":[15,9,0,4,1,15,12,12,15,1,12,1,1,0,15,15,2,0,0,15,0,15,0,2,1,1,15,15,15,0,0,15,15,0,0,0,0,0,0,0,0,0,0,0,0,0,0,0,0,0,0,0,0,0,0,0,0,0,0,0,0,0,0,0,0],"split_type":[0,0,0,0,0,0,0,0,0,0,0,0,0,0,0,0,0,0,0,0,0,0,0,0,0,0,0,0,0,0,0,0,0,0,0,0,0,0,0,0,0,0,0,0,0,0,0,0,0,0,0,0,0,0,0,0,0,0,0,0,0,0,0,0,0],"sum_hessian":[3.005833E3,2.8809731E3,1.2485978E2,1.764836E3,1.1161371E3,1.4091343E3,3.5570175E2,4.8911163E2,6.2702545E2,8.633417E2,5.4579266E2,2.461806E1,3.3108368E2,9.724007E1,3.9187155E2,3.6713385E2,2.5989163E2,7.7218225E2,9.115942E1,3.375634E1,5.120363E2,1.888714E1,5.730919E0,9.41925E1,2.3689119E2,3.5658891E0,9.367418E1,2.968695E2,9.500206E1,1.7880525E2,1.883286E2,1.763301E2,8.356152E1,5.9868634E2,1.7349593E2,1.4728539E1,7.643088E1,3.231188E1,1.4444599E0,3.2773068E2,1.8430565E2,1.7725296E1,1.1618445E0,1.036198E0,4.6947207E0,6.417599E1,3.0016514E1,1.7132994E2,6.556125E1,1.0751117E0,2.4907773E0,8.6612045E1,7.062136E0,2.947362E2,2.133299E0,9.354094E1,1.4611241E0,7.650611E1,1.0229914E2,3.8683113E1,1.496455E2,1.740678E2,2.2622957E0,6.639659E0,7.692187E1],"tree_param":{"num_deleted":"0","num_feature":"16","num_nodes":"65","size_leaf_vector":"0"}},{"base_weights":[-4.7138867E-1,-4.47718E-1,-1.1033406E0,-5.11724E-1,-3.501581E-1,-4.768204E-1,-6.5373176E-1,-4.5603165E-1,-2.6947877E-1,-4.9684307E-1,-2.3745747E-1,-3.1622857E-1,-6.8009526E-1,-1.4733273E-1,-5.403936E-1,-4.141799E-1,-2.1654372E-1,-4.2642665E-1,-5.658464E-1,-2.9560483E-1,1.0802279E0,6.6981655E-1,-3.901039E-1,-5.507866E-1,-7.3052627E-1,-5.9704864E-1,-9.539034E-2,-2.2259955E-1,-5.593266E-1,-2.1570818E-1,-5.845164E-1,-1.9790041E-1,-6.9381493E-1,-4.5057896E-1,1.5499166E-2,-4.8517415E-1,-7.2052896E-1,7.402953E-2,-4.4177827E-1,2.003573E-1,1.6950958E0,-2.3924392E-1,-7.7817965E-1,-1.8880102E-1,-6.460246E-1,-6.968179E-1,-1.1006116E0,-2.0849216E-1,-8.441061E-1,2.2785452E-1,-1.6701168E-1,-3.1796867E-1,8.2817626E-1,-6.444735E-1,-4.643186E-1,-3.0400157E-1,2.7185041E-2,-6.129999E-1,5.475467E-1,-2.06764E-1,8.043261E-1,-2.50232E-1,-1.052293E0],"categories":[],"categories_nodes":[],"categories_segments":[],"categories_sizes":[],"default_left":[true,true,false,true,true,true,true,true,true,true,true,true,true,true,true,true,true,true,true,true,true,false,true,true,true,true,true,true,true,true,true,true,true,false,false,false,false,false,false,false,false,false,false,false,false,false,false,false,false,false,false,false,false,false,false,false,false,false,false,false,false,false,false],"id":5,"left_children":[1,3,-1,5,7,9,11,13,15,17,19,21,23,25,27,29,31,33,35,37,39,-1,41,43,45,47,49,51,53,55,57,59,61,-1,-1,-1,-1,-1,-1,-1,-1,-1,-1,-1,-1,-1,-1,-1,-1,-1,-1,-1,-1,-1,-1,-1,-1,-1,-1,-1,-1,-1,-1],"loss_changes":[3.9981506E1,1.6117554E1,0E0,7.4886475E0,8.735542E0,5.9540405E0,2.5236053E0,1.1562935E1,4.4372864E0,5.435089E0,7.959405E0,2.02194E0,1.4537201E0,2.216532E0,1.9857864E0,5.1883793E0,3.7315712E0,6.221657E0,6.975052E0,5.2350492E0,2.056542E0,0E0,1.1672263E0,2.7712784E0,1.7492828E0,7.731385E-1,2.0855372E0,2.4060206E0,2.3731918E0,1.5993087E0,3.0446053E0,3.896061E0,2.2724876E0,0E0,0E0,0E0,0E0,0E0,0E0,0E0,0E0,0E0,0E0,0E0,0E0,0E0,0E0,0E0,0E0,0E0,0E0,0E0,0E0,0E0,0E0,0E0,0E0,0E0,0E0,0E0,0E0,0E0,0E0],"parents":[2147483647,0,0,1,1,3,3,4,4,5,5,6,6,7,7,8,8,9,9,10,10,11,11,12,12,13,13,14,14,15,15,16,16,17,17,18,18,19,19,20,20,22,22,23,23,24,24,25,25,26,26,27,27,28,28,29,29,30,30,31,31,32,32],"right_children":[2,4,-1,6,8,10,12,14,16,18,20,22,24,26,28,30,32,34,36,38,40,-1,42,44,46,48,50,52,54,56,58,60,62,-1,-1,-1,-1,-1,-1,-1,-1,-1,-1,-1,-1,-1,-1,-1,-1,-1,-1,-1,-1,-1,-1,-1,-1,-1,-1,-1,-1,-1,-1],"split_conditions":[8.7842107E-1,5E-1,-3.310022E-1,5E-1,6.49E2,1.2999998E3,5E-1,5E-1,5E-1,4.724269E-1,6.666666E-1,2.275E2,4.1E2,2.4491974E2,2.55E2,4.8944443E-1,6.538889E-1,5.15E1,4.3392784E1,1.405E3,4.15E1,2.0094498E-1,5.98E2,4.25E-1,6.55E-1,2.55E1,3.185E2,2.35E2,5.995E2,4.65E1,5E-1,6.447882E-1,3.55E1,-1.351737E-1,4.64975E-3,-1.4555225E-1,-2.161587E-1,2.2208858E-2,-1.3253349E-1,6.0107194E-2,5.0852877E-1,-7.177318E-2,-2.334539E-1,-5.664031E-2,-1.9380738E-1,-2.0904537E-1,-3.3018348E-1,-6.2547654E-2,-2.5323182E-1,6.835636E-2,-5.0103504E-2,-9.53906E-2,2.4845289E-1,-1.9334206E-1,-1.392956E-1,-9.120047E-2,8.155513E-3,-1.8389998E-1,1.6426401E-1,-6.20292E-2,2.4129784E-1,-7.506961E-2,-3.156879E-1],"split_indices":[15,9,0,4,1,1,12,12,5,15,15,1,1,1,1,15,15,0,0,1,0,0,1,15,15,0,1,1,1,0,13,15,0,0,0,0,0,0,0,0,0,0,0,0,0,0,0,0,0,0,0,0,0,0,0,0,0,0,0,0,0,0,0],"split_type":[0,0,0,0,0,0,0,0,0,0,0,0,0,0,0,0,0,0,0,0,0,0,0,0,0,0,0,0,0,0,0,0,0,0,0,0,0,0,0,0,0,0,0,0,0,0,0,0,0,0,0,0,0,0,0,0,0,0,0,0,0,0,0],"sum_hessian":[2.7048118E3,2.6088037E3,9.600802E1,1.5727356E3,1.0360681E3,1.2659417E3,3.0679395E2,4.460608E2,5.900073E2,1.1672277E3,9.871405E1,2.31699E1,2.8362402E2,9.6326675E1,3.4973413E2,1.5620026E2,4.3380707E2,5.8125214E2,5.8597546E2,9.528494E1,3.4291098E0,1.0526662E0,2.2117235E1,8.2923645E1,2.007004E2,8.887187E0,8.743949E1,2.0381632E1,3.2935248E2,7.318886E1,8.30114E1,4.1886008E2,1.4946988E1,5.511129E2,3.013922E1,3.8784015E2,1.9813533E2,2.7142418E1,6.8142525E1,1.9559773E0,1.4731325E0,1.7090132E1,5.027103E0,1.7893911E1,6.502973E1,1.8658827E2,1.4112114E1,4.171078E0,4.716109E0,1.5464226E1,7.1975266E1,1.9325073E1,1.05656E0,1.7064009E2,1.587124E2,5.3492405E1,1.9696451E1,8.142129E1,1.5901065E0,4.159749E2,2.8851466E0,7.43943E0,7.507558E0],"tree_param":{"num_deleted":"0","num_feature":"16","num_nodes":"63","size_leaf_vector":"0"}},{"base_weights":[-3.7096098E-1,-3.4925926E-1,-1.0680034E0,-1.238622E-1,-3.7038156E-1,-2.0412265E-1,3.7079672E-3,-4.0449968E-1,-2.117666E-1,-3.188263E-2,-3.6898726E-1,-3.1565386E-1,1.0625653E-1,-3.706826E-1,-5.6703323E-1,-5.5495847E-2,-2.751135E-1,1.6357604E-2,-7.159428E-1,-2.1531515E-1,-6.3871694E-1,-8.44544E-1,-2.3164548E-2,5.586728E-3,4.068676E-1,-3.4236556E-1,-4.99564E-1,-7.391423E-1,-5.1363677E-1,4.7428943E-2,-4.350332E-1,-1.8750972E-1,-4.161445E-1,-3.1460482E-1,1.675349E-1,-5.0900735E-2,-9.6408E-1,3.134902E-1,-3.1721264E-1,-8.4648967E-1,-4.25932E-2,-8.276532E-2,-1.173647E0,-5.610314E-1,4.07898E-1,6.335277E-2,-9.308653E-1,6.47078E-1,-1.3650158E-1,-3.6687544E-1,-2.2142497E-1,1.567553E-1,-5.2205133E-1,-8.572014E-1,-3.1349513E-1,-5.639456E-1,-1.6748339E-1,-2.428223E-2,6.397426E-1,-1.0149773E0,-2.9514894E-1,-2.615005E-1,7.753791E-2,1.8611395E-1,-4.7390026E-1],"categories":[],"categories_nodes":[],"categories_segments":[],"categories_sizes":[],"default_left":[true,true,false,true,true,true,true,true,true,true,true,true,true,true,true,true,true,true,true,true,true,true,true,true,true,true,true,true,true,true,true,true,true,false,false,false,false,false,false,false,false,false,false,false,false,false,false,false,false,false,false,false,false,false,false,false,false,false,false,false,false,false,false,false,false],"id":6,"left_children":[1,3,-1,5,7,9,11,13,15,17,19,21,23,25,27,29,31,33,35,37,39,41,43,45,47,49,51,53,55,57,59,61,63,-1,-1,-1,-1,-1,-1,-1,-1,-1,-1,-1,-1,-1,-1,-1,-1,-1,-1,-1,-1,-1,-1,-1,-1,-1,-1,-1,-1,-1,-1,-1,-1],"loss_changes":[3.7009216E1,1.1371185E1,0E0,2.1199498E0,1.1777283E1,3.596363E0,2.6834335E0,9.6996155E0,3.8469543E0,2.098459E0,2.549553E0,3.061686E0,1.873826E0,5.2862244E0,2.456688E0,4.4656606E0,3.348755E0,3.0571616E0,6.420419E-1,2.4060462E0,2.8151903E0,1.6739831E0,3.440875E0,2.626091E0,2.1164773E0,3.5622406E0,4.025177E0,3.289177E0,4.064682E0,3.855989E0,1.6777048E0,3.411209E0,3.756319E0,0E0,0E0,0E0,0E0,0E0,0E0,0E0,0E0,0E0,0E0,0E0,0E0,0E0,0E0,0E0,0E0,0E0,0E0,0E0,0E0,0E0,0E0,0E0,0E0,0E0,0E0,0E0,0E0,0E0,0E0,0E0,0E0],"parents":[2147483647,0,0,1,1,3,3,4,4,5,5,6,6,7,7,8,8,9,9,10,10,11,11,12,12,13,13,14,14,15,15,16,16,17,17,18,18,19,19,20,20,21,21,22,22,23,23,24,24,25,25,26,26,27,27,28,28,29,29,30,30,31,31,32,32],"right_children":[2,4,-1,6,8,10,12,14,16,18,20,22,24,26,28,30,32,34,36,38,40,42,44,46,48,50,52,54,56,58,60,62,64,-1,-1,-1,-1,-1,-1,-1,-1,-1,-1,-1,-1,-1,-1,-1,-1,-1,-1,-1,-1,-1,-1,-1,-1,-1,-1,-1,-1,-1,-1,-1,-1],"split_conditions":[8.7842107E-1,5E-1,-3.2040104E-1,4.615E2,1.0407566E3,5E-1,5E-1,5.772222E-1,2.85E1,6E1,3.55E1,3.9581436E-1,3.85E1,5E-1,3.520844E2,1.825E3,5.2055556E-1,2.574E2,5E-1,5E-1,4.75E1,3.3E1,5E-1,3.65E1,6.3215554E-1,8.485E2,2.15E1,6.555556E-1,5E-1,5.961111E-1,1.8985E3,4.861111E-1,1.199E3,-9.438145E-2,5.0260473E-2,-1.5270221E-2,-2.89224E-1,9.404707E-2,-9.51638E-2,-2.539469E-1,-1.2777961E-2,-2.4829596E-2,-3.520941E-1,-1.6830942E-1,1.2236941E-1,1.9005831E-2,-2.792596E-1,1.941234E-1,-4.0950477E-2,-1.1006264E-1,-6.642749E-2,4.7026593E-2,-1.566154E-1,-2.5716043E-1,-9.4048545E-2,-1.6918369E-1,-5.024502E-2,-7.284669E-3,1.919228E-1,-3.0449322E-1,-8.854468E-2,-7.845016E-2,2.3261374E-2,5.583419E-2,-1.4217009E-1],"split_indices":[15,12,0,1,1,13,5,15,0,0,0,15,0,4,1,1,15,1,5,5,0,0,13,0,15,1,0,15,11,15,1,15,1,0,0,0,0,0,0,0,0,0,0,0,0,0,0,0,0,0,0,0,0,0,0,0,0,0,0,0,0,0,0,0,0],"split_type":[0,0,0,0,0,0,0,0,0,0,0,0,0,0,0,0,0,0,0,0,0,0,0,0,0,0,0,0,0,0,0,0,0,0,0,0,0,0,0,0,0,0,0,0,0,0,0,0,0,0,0,0,0,0,0,0,0,0,0,0,0,0,0,0,0],"sum_hessian":[2.4702202E3,2.39709E3,7.3129974E1,2.059759E2,2.1911143E3,1.2606337E2,7.9912544E1,1.8019618E3,3.8915244E2,6.223627E1,6.38271E1,1.891826E1,6.099428E1,1.4943292E3,3.076326E2,1.1278891E2,2.7636353E2,5.904825E1,3.188022E0,4.180688E1,2.202022E1,6.064596E0,1.2853664E1,4.6455627E1,1.4538654E1,1.228145E3,2.6618417E2,6.980199E1,2.378306E2,8.941575E1,2.3373161E1,1.7190898E2,1.0445455E2,1.8175907E1,4.087234E1,1.1937466E0,1.9942752E0,6.418907E0,3.5387974E1,1.6017496E1,6.002723E0,2.2071557E0,3.8574405E0,5.5842714E0,7.2693934E0,4.463464E1,1.8209872E0,9.949402E0,4.5892525E0,1.0194993E3,2.0864568E2,8.620293E0,2.5756387E2,5.3851627E1,1.5950363E1,2.071019E2,3.0728695E1,8.061475E1,8.800991E0,3.3264103E0,2.0046751E1,1.344025E2,3.7506474E1,8.946011E0,9.5508545E1],"tree_param":{"num_deleted":"0","num_feature":"16","num_nodes":"65","size_leaf_vector":"0"}},{"base_weights":[-2.876023E-1,-2.6847222E-1,-1.0412407E0,-3.2770446E-1,-1.8259756E-1,-2.9717985E-1,-4.6141595E-1,-2.7452576E-1,-1.169634E-1,-2.4763018E-1,-3.820042E-1,-3.4727135E-1,-5.574818E-1,-7.137939E-2,-3.3959398E-1,-8.060996E-2,-3.23495E-1,-2.6399648E-1,1.123153E-1,-4.0195978E-1,9.856152E-2,2.4654415E-1,-3.817839E-1,-6.509814E-1,-3.8317356E-1,-3.171705E-2,-5.5709916E-1,-3.1520164E-1,-6.8256074E-1,-1.0366957E-1,2.7833447E-1,-5.218602E-1,-9.392111E-2,-2.2345586E-1,-4.1067663E-1,2.1173632E-1,-4.3540537E-1,-3.4113204E-1,-5.2539945E-1,3.5508624E-1,-6.6351384E-1,-4.1075554E-1,1.3425078E0,-4.2024425E-1,2.3991041E-1,-5.522468E-1,-9.605103E-1,4.3001227E-2,-5.3179467E-1,-7.191034E-2,1.3893136E0,-1.0228279E0,6.571199E-1,-3.825708E-2,-3.473346E-1,-8.0836403E-1,2.0049274E-1,-8.801586E-2,-4.048861E-1,4.0318793E-1,-5.086623E-1,5.877224E-2,-6.53717E-1,4.3098927E-1,-2.457572E-1],"categories":[],"categories_nodes":[],"categories_segments":[],"categories_sizes":[],"default_left":[true,true,false,true,true,true,true,true,true,true,true,true,true,true,true,true,true,true,true,true,true,true,true,true,true,true,true,true,true,true,true,true,true,false,false,false,false,false,false,false,false,false,false,false,false,false,false,false,false,false,false,false,false,false,false,false,false,false,false,false,false,false,false,false,false],"id":7,"left_children":[1,3,-1,5,7,9,11,13,15,17,19,21,23,25,27,29,31,33,35,37,39,41,43,45,47,49,51,53,55,57,59,61,63,-1,-1,-1,-1,-1,-1,-1,-1,-1,-1,-1,-1,-1,-1,-1,-1,-1,-1,-1,-1,-1,-1,-1,-1,-1,-1,-1,-1,-1,-1,-1,-1],"loss_changes":[3.275244E1,1.1312622E1,0E0,5.258133E0,5.4880676E0,4.4405212E0,2.4805832E0,5.0036144E0,3.9947715E0,4.058937E0,3.8376007E0,2.4325447E0,1.8818512E0,1.7844095E0,2.1927376E0,3.8090913E0,3.5860882E0,3.8003807E0,1.7502662E0,2.6773567E0,3.4793732E0,5.504014E0,2.6885958E0,2.027073E0,3.0686378E0,5.099904E0,4.631383E0,2.3945522E0,2.1898565E0,1.9912615E0,2.9406796E0,3.3001003E0,3.152094E0,0E0,0E0,0E0,0E0,0E0,0E0,0E0,0E0,0E0,0E0,0E0,0E0,0E0,0E0,0E0,0E0,0E0,0E0,0E0,0E0,0E0,0E0,0E0,0E0,0E0,0E0,0E0,0E0,0E0,0E0,0E0,0E0],"parents":[2147483647,0,0,1,1,3,3,4,4,5,5,6,6,7,7,8,8,9,9,10,10,11,11,12,12,13,13,14,14,15,15,16,16,17,17,18,18,19,19,20,20,21,21,22,22,23,23,24,24,25,25,26,26,27,27,28,28,29,29,30,30,31,31,32,32],"right_children":[2,4,-1,6,8,10,12,14,16,18,20,22,24,26,28,30,32,34,36,38,40,42,44,46,48,50,52,54,56,58,60,62,64,-1,-1,-1,-1,-1,-1,-1,-1,-1,-1,-1,-1,-1,-1,-1,-1,-1,-1,-1,-1,-1,-1,-1,-1,-1,-1,-1,-1,-1,-1,-1,-1],"split_conditions":[8.7842107E-1,5E-1,-3.123722E-1,5E-1,6.49E2,5.1023203E-1,6.38E2,5E-1,4.95E1,1.526E3,7.524269E-1,2.25E1,1.0407566E3,7.5E-1,6.25E-1,4.65E1,5.65E1,4.2376392E1,4.9666667E-1,4.3863758E1,4.6967453E1,4.225E2,5E-1,9.005352E2,1.255E3,7.4263155E-1,4.745E2,3.045E2,7.088889E-1,2.15E3,6.15E-1,7.1E2,5.85E1,-6.703676E-2,-1.23202994E-1,6.35209E-2,-1.3062161E-1,-1.0233962E-1,-1.5761983E-1,1.06525876E-1,-1.9905417E-1,-1.23226665E-1,4.0275237E-1,-1.2607329E-1,7.197312E-2,-1.6567405E-1,-2.881531E-1,1.2900368E-2,-1.595384E-1,-2.1573102E-2,4.167941E-1,-3.0684838E-1,1.9713598E-1,-1.1477125E-2,-1.04200386E-1,-2.4250922E-1,6.0147826E-2,-2.6404759E-2,-1.2146583E-1,1.2095638E-1,-1.525987E-1,1.7631672E-2,-1.961151E-1,1.2929678E-1,-7.372717E-2],"split_indices":[15,9,0,4,1,15,1,12,0,1,15,0,1,15,15,0,0,0,15,0,0,1,14,1,1,15,1,1,15,1,15,1,0,0,0,0,0,0,0,0,0,0,0,0,0,0,0,0,0,0,0,0,0,0,0,0,0,0,0,0,0,0,0,0,0],"split_type":[0,0,0,0,0,0,0,0,0,0,0,0,0,0,0,0,0,0,0,0,0,0,0,0,0,0,0,0,0,0,0,0,0,0,0,0,0,0,0,0,0,0,0,0,0,0,0,0,0,0,0,0,0,0,0,0,0,0,0,0,0,0,0,0,0],"sum_hessian":[2.29016E3,2.234789E3,5.5370766E1,1.320888E3,9.139011E2,1.0780138E3,2.4287413E2,3.7936877E2,5.3453235E2,6.829763E2,3.9503748E2,1.1310214E2,1.2977199E2,9.2542656E1,2.868261E2,4.557093E2,7.882308E1,6.535277E2,2.9448563E1,3.7944458E2,1.5592916E1,5.8749747E0,1.07227165E2,8.2684875E1,4.7087112E1,8.654127E1,6.0013885E0,2.6957272E2,1.7253374E1,4.2886874E2,2.6840557E1,4.1602734E1,3.7220352E1,5.139904E2,1.395373E2,2.5443533E1,4.00503E0,2.5670895E2,1.2273562E2,1.2065545E1,3.52737E0,4.0632615E0,1.8117136E0,1.0128531E2,5.941856E0,6.479917E1,1.7885708E1,1.2358752E1,3.472836E1,8.50841E1,1.4571743E0,4.4515615E0,1.5498267E0,2.825362E1,2.413191E2,1.5175933E1,2.0774422E0,4.0891055E2,1.995818E1,2.3586374E1,3.2541835E0,7.801785E0,3.380095E1,7.938335E0,2.9282017E1],"tree_param":{"num_deleted":"0","num_feature":"16","num_nodes":"65","size_leaf_vector":"0"}},{"base_weights":[-2.1947637E-1,-2.0318247E-1,-1.0195799E0,-2.5164077E-1,-1.3529922E-1,-2.1326673E-1,-3.3801806E-1,-1.7311668E-1,-3.31097E-2,-2.3566735E-1,6.5061115E-2,-7.541064E-2,-3.654909E-1,2.0349114E-1,-1.8390115E-1,8.105745E-2,-1.9597095E-1,-1.809865E-1,-4.9080506E-1,2.7397618E-1,-1.5577981E-1,-2.1324265E-1,4.2229664E-1,-3.9827827E-1,-2.0218197E-1,7.6310825E-1,3.494125E-2,-2.2171776E-1,-9.839736E-2,3.9810188E-2,8.6914057E-1,-3.485249E-1,-5.7008125E-2,-2.5258315E-1,-5.5987556E-2,-7.36362E-1,-2.6205623E-1,1.6730444E-1,1.3927902E0,-2.8108698E-1,6.722318E-1,-3.4383613E-1,2.2356807E-1,1.0967722E0,1.2888116E-1,-4.2462382E-1,-2.1388564E-1,1.503782E0,-4.0491992E-1,-2.1774343E-1,1.1769063E0,2.8504765E-1,-3.7046278E-1,-2.3658076E-1,1.2898794E-1,-3.3522934E-2,-6.037998E-1,-1.5894172E-1,1.7214192E-1,1.3610785E0,-2.2077903E-1,-4.0607637E-1,4.3799672E-1,6.569669E-1,-1.6553777E-1],"categories":[],"categories_nodes":[],"categories_segments":[],"categories_sizes":[],"default_left":[true,true,false,true,true,true,true,true,true,true,true,true,true,true,true,true,true,true,true,true,true,true,true,true,true,true,true,true,true,true,true,true,true,false,false,false,false,false,false,false,false,false,false,false,false,false,false,false,false,false,false,false,false,false,false,false,false,false,false,false,false,false,false,false,false],"id":8,"left_children":[1,3,-1,5,7,9,11,13,15,17,19,21,23,25,27,29,31,33,35,37,39,41,43,45,47,49,51,53,55,57,59,61,63,-1,-1,-1,-1,-1,-1,-1,-1,-1,-1,-1,-1,-1,-1,-1,-1,-1,-1,-1,-1,-1,-1,-1,-1,-1,-1,-1,-1,-1,-1,-1,-1],"loss_changes":[2.7895287E1,6.9194717E0,0E0,4.012329E0,3.4051876E0,5.351635E0,2.6947098E0,2.6529408E0,4.4716377E0,1.0965546E1,3.020265E0,2.6279788E0,1.747139E0,1.7090864E0,2.0041885E0,4.5679445E0,2.07997E0,5.839739E0,7.629528E0,3.7682772E0,3.5102816E0,1.7675033E0,1.5129081E0,1.2850952E0,2.1050184E1,1.9656367E0,1.6458311E0,2.2908573E0,6.338574E0,3.5936809E0,4.0505095E0,2.3063107E0,4.2179613E0,0E0,0E0,0E0,0E0,0E0,0E0,0E0,0E0,0E0,0E0,0E0,0E0,0E0,0E0,0E0,0E0,0E0,0E0,0E0,0E0,0E0,0E0,0E0,0E0,0E0,0E0,0E0,0E0,0E0,0E0,0E0,0E0],"parents":[2147483647,0,0,1,1,3,3,4,4,5,5,6,6,7,7,8,8,9,9,10,10,11,11,12,12,13,13,14,14,15,15,16,16,17,17,18,18,19,19,20,20,21,21,22,22,23,23,24,24,25,25,26,26,27,27,28,28,29,29,30,30,31,31,32,32],"right_children":[2,4,-1,6,8,10,12,14,16,18,20,22,24,26,28,30,32,34,36,38,40,42,44,46,48,50,52,54,56,58,60,62,64,-1,-1,-1,-1,-1,-1,-1,-1,-1,-1,-1,-1,-1,-1,-1,-1,-1,-1,-1,-1,-1,-1,-1,-1,-1,-1,-1,-1,-1,-1,-1,-1],"split_conditions":[8.7842107E-1,5E-1,-3.05874E-1,5.3166664E-1,9.985E2,5.15E1,5E-1,1.95E1,3.8171707E1,4.2376392E1,4.5166665E-1,7.7257603E-1,5E-1,3.7037E2,4.0955994E1,3.7697075E1,1.225E3,4.5055556E-1,3.909505E2,4.4444445E-1,5.2166665E-1,5.33E2,7.826316E-1,1.2375E3,4.3390015E1,2.535E2,5E-1,6.783918E-1,6.408467E-1,4.35E-1,5E-1,6.55E1,1.325E3,-7.5774945E-2,-1.6796267E-2,-2.209086E-1,-7.861687E-2,5.0191335E-2,4.1783708E-1,-8.4326096E-2,2.0166954E-1,-1.03150845E-1,6.7070425E-2,3.2903168E-1,3.866435E-2,-1.2738715E-1,-6.41657E-2,4.5113462E-1,-1.2147598E-1,-6.532303E-2,3.5307193E-1,8.55143E-2,-1.11138836E-1,-7.097423E-2,3.8696382E-2,-1.005688E-2,-1.8113995E-1,-4.7682516E-2,5.1642578E-2,4.0832356E-1,-6.623371E-2,-1.21822916E-1,1.3139902E-1,1.9709009E-1,-4.9661335E-2],"split_indices":[15,9,0,15,1,0,12,0,0,0,15,15,11,1,0,0,1,15,1,15,15,1,15,1,0,1,2,15,15,15,4,0,1,0,0,0,0,0,0,0,0,0,0,0,0,0,0,0,0,0,0,0,0,0,0,0,0,0,0,0,0,0,0,0,0],"split_type":[0,0,0,0,0,0,0,0,0,0,0,0,0,0,0,0,0,0,0,0,0,0,0,0,0,0,0,0,0,0,0,0,0,0,0,0,0,0,0,0,0,0,0,0,0,0,0,0,0,0,0,0,0,0,0,0,0,0,0,0,0,0,0,0,0],"sum_hessian":[2.154623E3,2.1128494E3,4.1773678E1,1.2312311E3,8.8161816E2,8.5490125E2,3.7632983E2,6.4297656E2,2.3864159E2,7.9136334E2,6.3537907E1,3.599602E1,3.403338E2,1.7402117E1,6.2557446E2,1.4058946E2,9.805213E1,6.531008E2,1.3826254E2,3.252691E1,3.1010998E1,2.8637012E1,7.3590093E0,2.822317E2,5.810211E1,3.2115803E0,1.4190537E1,4.3263538E2,1.9293907E2,1.3459541E2,5.9940367E0,4.6021503E1,5.203063E1,4.1460403E2,2.3849678E2,6.561122E1,7.265133E1,3.0745098E1,1.7818109E0,2.7508522E1,3.5024753E0,2.2209791E1,6.427222E0,1.400871E0,5.958138E0,2.4580841E2,3.6423294E1,5.4898353E0,5.2612278E1,1.0934649E0,2.1181154E0,8.959823E0,5.230715E0,4.1535785E2,1.7277552E1,1.7193544E2,2.1003633E1,5.3716446E1,8.0878975E1,3.9585483E0,2.0354886E0,4.3334343E1,2.68716E0,6.198662E0,4.5831966E1],"tree_param":{"num_deleted":"0","num_feature":"16","num_nodes":"65","size_leaf_vector":"0"}},{"base_weights":[-1.6453859E-1,-1.5104945E-1,-1.0006196E0,-1.2694097E-1,-2.4765675E-1,-1.4762998E-1,4.6029903E-2,-2.6302227E-1,2.775946E-1,1.0828123E-2,-1.6525616E-1,3.5822117E-1,-5.4510172E-2,-2.0385891E-1,-3.5600775E-1,9.3745446E-1,-1.3713822E-1,-3.3318067E-1,6.7594394E-2,-1.3510805E-1,-2.7150097E-1,5.64103E-1,-1.4653577E-3,9.1836107E-1,-8.115408E-2,-1.0132294E-1,-2.8864163E-1,5.151396E-1,-3.70608E-1,-7.153943E-1,1.9857717E0,-5.975538E-1,7.30957E-1,-5.227106E-1,4.6134892E-1,2.0361198E-1,-1.7161877E-1,-1.6187344E-1,3.27867E-2,-2.0066972E-1,-4.8578063E-1,2.4657637E-1,8.673501E-1,-6.6829956E-1,1.8129423E-1,1.125562E0,2.382293E-1,-1.1887142E-1,4.393469E-1,-2.0818277E-1,2.465782E-1,-3.6362025E-1,-9.650041E-2,-3.247372E-1,-6.462018E-1,-8.793549E-1,2.4388272E-1,-1.3064958E-1,1.2456743E0],"categories":[],"categories_nodes":[],"categories_segments":[],"categories_sizes":[],"default_left":[true,true,false,true,true,true,true,true,true,true,true,true,true,true,true,true,true,true,true,true,true,true,true,true,true,true,true,false,true,false,false,true,true,false,false,false,false,false,false,false,false,false,false,false,false,false,false,false,false,false,false,false,false,false,false,false,false,false,false],"id":9,"left_children":[1,3,-1,5,7,9,11,13,15,17,19,21,23,25,27,29,31,33,35,37,39,41,43,45,47,49,51,-1,53,-1,-1,55,57,-1,-1,-1,-1,-1,-1,-1,-1,-1,-1,-1,-1,-1,-1,-1,-1,-1,-1,-1,-1,-1,-1,-1,-1,-1,-1],"loss_changes":[2.3031376E1,4.6827736E0,0E0,5.810934E0,3.3270226E0,4.048504E0,5.482028E0,2.0852604E0,3.397751E0,2.8730695E0,4.1398125E0,3.1499996E0,3.5092554E0,2.0750122E0,2.1138039E0,9.630331E0,3.7173371E0,3.3800302E0,4.138776E0,4.578514E0,4.261881E0,2.3905563E0,2.129337E0,2.4107385E-1,2.6022863E0,4.1815968E0,1.8659525E0,0E0,1.6772118E0,0E0,0E0,1.6166558E0,1.6237366E0,0E0,0E0,0E0,0E0,0E0,0E0,0E0,0E0,0E0,0E0,0E0,0E0,0E0,0E0,0E0,0E0,0E0,0E0,0E0,0E0,0E0,0E0,0E0,0E0,0E0,0E0],"parents":[2147483647,0,0,1,1,3,3,4,4,5,5,6,6,7,7,8,8,9,9,10,10,11,11,12,12,13,13,14,14,15,15,16,16,17,17,18,18,19,19,20,20,21,21,22,22,23,23,24,24,25,25,26,26,28,28,31,31,32,32],"right_children":[2,4,-1,6,8,10,12,14,16,18,20,22,24,26,28,30,32,34,36,38,40,42,44,46,48,50,52,-1,54,-1,-1,56,58,-1,-1,-1,-1,-1,-1,-1,-1,-1,-1,-1,-1,-1,-1,-1,-1,-1,-1,-1,-1,-1,-1,-1,-1,-1,-1],"split_conditions":[8.7842107E-1,5E-1,-3.0018592E-1,1.249E3,6.45E1,5E-1,1.405E3,5E-1,5.0333333E-1,2.6259973E2,5.516667E-1,3.5048504E1,1.95E1,4.7055554E-1,1.3637E2,2.1555555E-1,5E-1,3.55E1,3.21995E1,4.5893845E1,4.521019E1,4.45E-1,3.85E1,1.725E3,5.75E1,4.65E1,6.0833335E-1,1.5454188E-1,6.227778E-1,-2.1461831E-1,5.957315E-1,9.25E2,6.85E1,-1.5681319E-1,1.3840468E-1,6.1083596E-2,-5.1485635E-2,-4.8562035E-2,9.836011E-3,-6.020092E-2,-1.4573419E-1,7.397291E-2,2.6020503E-1,-2.0048988E-1,5.4388274E-2,3.376686E-1,7.146879E-2,-3.566143E-2,1.3180408E-1,-6.245483E-2,7.397346E-2,-1.0908608E-1,-2.8950125E-2,-9.742116E-2,-1.9386055E-1,-2.638065E-1,7.316482E-2,-3.9194874E-2,3.737023E-1],"split_indices":[15,4,0,1,0,12,1,8,15,1,15,0,0,15,1,15,2,0,0,0,0,15,0,1,0,0,15,0,15,0,0,1,0,0,0,0,0,0,0,0,0,0,0,0,0,0,0,0,0,0,0,0,0,0,0,0,0,0,0],"split_type":[0,0,0,0,0,0,0,0,0,0,0,0,0,0,0,0,0,0,0,0,0,0,0,0,0,0,0,0,0,0,0,0,0,0,0,0,0,0,0,0,0,0,0,0,0,0,0,0,0,0,0,0,0,0,0,0,0,0,0],"sum_hessian":[2.0545479E3,2.0230885E3,3.1459414E1,1.6209039E3,4.021846E2,1.4478708E3,1.73033E2,3.9123868E2,1.0945932E1,1.4497165E2,1.3028992E3,4.1525974E1,1.3150703E2,2.4105577E2,1.501829E2,3.738082E0,7.2078505E0,1.9844263E1,1.25127396E2,1.0166777E3,2.8622156E2,2.6047985E1,1.5477988E1,2.6134107E0,1.2889362E2,1.1009831E2,1.3095746E2,1.9104382E0,1.4827246E2,1.5739938E0,2.1640882E0,4.913503E0,2.2943475E0,1.629848E1,3.5457845E0,7.986478E1,4.5262615E1,8.7691736E2,1.3976028E2,2.165698E2,6.965178E1,1.361011E1,1.2437875E1,2.7580366E0,1.2719952E1,1.501166E0,1.1122447E0,1.20904106E2,7.9895186E0,8.453462E1,2.556369E1,9.35567E1,3.740077E1,1.2898248E2,1.9289986E1,3.647031E0,1.266472E0,1.1370928E0,1.1572547E0],"tree_param":{"num_deleted":"0","num_feature":"16","num_nodes":"59","size_leaf_vector":"0"}},{"base_weights":[-1.21841304E-1,-1.10927455E-1,-9.8255193E-1,-1.4826113E-1,-6.0601577E-2,-9.274219E-2,-1.9435625E-1,-1.5849409E-1,-2.5080822E-2,-1.7220564E-1,1.6899098E-1,1.8758485E-2,-2.2862716E-1,2.4046985E-2,-2.4356781E-1,9.157957E-3,-2.2206648E-1,-8.5400626E-2,-3.753399E-1,1.6745958E-2,5.1286876E-1,1.033359E-1,-6.98973E-1,-2.4468604E-1,3.5502476E-1,1.2544982E-1,-2.1415222E-1,-2.934136E-1,6.4328E-3,-5.0269034E-2,1.2362861E-1,-3.6558926E-1,-6.4848185E-2,-1.3927886E-1,1.5767182E-1,-5.2727264E-1,2.5486756E-2,-1.0082355E-1,4.2930087E-1,7.5165933E-1,-7.8394514E-1,-7.101908E-2,3.8325223E-1,-8.694997E-1,1.782827E-1,-3.7597165E-1,-1.7726672E-1,1.4491293E0,-6.0302384E-2,3.2690307E-1,-1.5189166E-1,6.081749E-1,-3.899548E-1,-6.467096E-1,-2.181112E-1,-4.7407982E-1,1.6879757E-1,-2.0057201E-2,-3.8712734E-1,-9.565007E-2,2.9811615E-1,-4.4433424E-1,2.9318964E-1,-2.2789675E-1,3.6805215E-1],"categories":[],"categories_nodes":[],"categories_segments":[],"categories_sizes":[],"default_left":[true,true,false,true,true,true,true,true,true,true,true,true,true,true,true,true,true,true,true,true,true,true,true,true,true,true,true,true,true,true,true,true,true,false,false,false,false,false,false,false,false,false,false,false,false,false,false,false,false,false,false,false,false,false,false,false,false,false,false,false,false,false,false,false,false],"id":10,"left_children":[1,3,-1,5,7,9,11,13,15,17,19,21,23,25,27,29,31,33,35,37,39,41,43,45,47,49,51,53,55,57,59,61,63,-1,-1,-1,-1,-1,-1,-1,-1,-1,-1,-1,-1,-1,-1,-1,-1,-1,-1,-1,-1,-1,-1,-1,-1,-1,-1,-1,-1,-1,-1,-1,-1],"loss_changes":[1.8505787E1,3.6697006E0,0E0,2.8568668E0,2.9014773E0,1.0667589E1,4.4804497E0,3.457724E0,4.1451406E0,6.8955593E0,6.254661E0,5.2822075E0,5.0360947E0,1.7556145E0,1.8923836E0,3.5727646E0,2.0296788E0,3.6437106E0,7.1586056E0,4.1154413E0,1.1947259E1,3.8168993E0,1.527761E0,4.487234E0,6.698048E0,2.8896785E0,3.380086E0,3.224598E0,2.1239474E0,3.5117996E0,6.894793E0,2.5869431E0,3.2350302E0,0E0,0E0,0E0,0E0,0E0,0E0,0E0,0E0,0E0,0E0,0E0,0E0,0E0,0E0,0E0,0E0,0E0,0E0,0E0,0E0,0E0,0E0,0E0,0E0,0E0,0E0,0E0,0E0,0E0,0E0,0E0,0E0],"parents":[2147483647,0,0,1,1,3,3,4,4,5,5,6,6,7,7,8,8,9,9,10,10,11,11,12,12,13,13,14,14,15,15,16,16,17,17,18,18,19,19,20,20,21,21,22,22,23,23,24,24,25,25,26,26,27,27,28,28,29,29,30,30,31,31,32,32],"right_children":[2,4,-1,6,8,10,12,14,16,18,20,22,24,26,28,30,32,34,36,38,40,42,44,46,48,50,52,54,56,58,60,62,64,-1,-1,-1,-1,-1,-1,-1,-1,-1,-1,-1,-1,-1,-1,-1,-1,-1,-1,-1,-1,-1,-1,-1,-1,-1,-1,-1,-1,-1,-1,-1,-1],"split_conditions":[8.7842107E-1,5E-1,-2.947656E-1,5.241118E2,5.995E2,3.8574408E2,2.35E1,3.77195E2,4.95E1,4.2673702E1,5E-1,5.6666666E-1,5E-1,5.3888893E-1,4.75E1,5E-1,5.65E1,3.4592682E2,5.05E1,5E-1,4.4113696E2,3.9944446E-1,6.688889E-1,3.1942776E1,2.75E1,5E-1,2.55E1,5E-1,4.52305E2,6.15E-1,4.583333E-1,6.122222E-1,5E-1,-4.178366E-2,4.730155E-2,-1.581818E-1,7.646027E-3,-3.0247066E-2,1.2879027E-1,2.2549781E-1,-2.3518355E-1,-2.1305725E-2,1.14975676E-1,-2.6084992E-1,5.348481E-2,-1.127915E-1,-5.3180017E-2,4.347388E-1,-1.8090716E-2,9.807093E-2,-4.55675E-2,1.8245248E-1,-1.16986446E-1,-1.940129E-1,-6.543336E-2,-1.4222395E-1,5.063927E-2,-6.0171606E-3,-1.16138205E-1,-2.8695023E-2,8.943485E-2,-1.3330027E-1,8.79569E-2,-6.836903E-2,1.1041565E-1],"split_indices":[15,9,0,1,1,1,0,1,0,0,6,15,13,15,0,2,0,1,0,14,1,15,15,0,0,2,0,5,1,15,15,15,2,0,0,0,0,0,0,0,0,0,0,0,0,0,0,0,0,0,0,0,0,0,0,0,0,0,0,0,0,0,0,0,0],"split_type":[0,0,0,0,0,0,0,0,0,0,0,0,0,0,0,0,0,0,0,0,0,0,0,0,0,0,0,0,0,0,0,0,0,0,0,0,0,0,0,0,0,0,0,0,0,0,0,0,0,0,0,0,0,0,0,0,0,0,0,0,0,0,0,0,0],"sum_hessian":[1.9806309E3,1.9569456E3,2.368528E1,1.122377E3,8.345686E2,5.105095E2,6.118675E2,2.2127885E2,6.1328973E2,3.918761E2,1.18633415E2,8.4826126E1,5.270414E2,7.057174E1,1.507071E2,5.232886E2,9.0001144E1,2.7554733E2,1.1632876E2,8.295531E1,3.567811E1,7.664975E1,8.176375E0,5.1349365E2,1.35477495E1,4.983151E1,2.0740232E1,1.2550911E2,2.5198E1,3.448315E2,1.7845708E2,4.6357006E1,4.3644142E1,2.2590202E2,4.964531E1,8.412561E1,3.2203148E1,6.5145744E1,1.7809559E1,3.0485077E1,5.193032E0,4.769047E1,2.8959276E1,6.853072E0,1.3233035E0,1.7267232E2,3.4082132E2,3.0428312E0,1.0504918E1,2.876135E1,2.1070158E1,3.2198362E0,1.7520397E1,2.0718067E1,1.04791046E2,5.8791184E0,1.9318882E1,3.174224E2,2.740914E1,7.927895E1,9.917812E1,4.1698257E1,4.6587467E0,3.204732E1,1.1596818E1],"tree_param":{"num_deleted":"0","num_feature":"16","num_nodes":"65","size_leaf_vector":"0"}},{"base_weights":[-9.0824395E-2,-8.2163766E-2,-9.639144E-1,-1.3839266E-1,-5.9325323E-2,-2.855606E-1,-9.7055465E-2,-7.860797E-2,7.719413E-2,-1.1928024E-2,-6.270916E-1,2.8335717E-1,-1.362938E-1,-4.8198584E-2,-1.3782327E-1,1.7663905E-1,-1.4931318E-1,6.314059E-1,-2.206948E-1,-9.784896E-1,-3.3098507E-1,6.1489564E-1,-1.9526233E-1,-3.1046832E-2,-2.2067851E-1,-6.2949635E-2,4.1333833E-1,-1.923245E-1,-1.1203737E-2,5.3527944E-2,4.6572036E-1,-2.1353024E-1,5.9245163E-1,2.1110287E0,-3.2596102E-1,-5.2902395E-1,1.3001253E-1,-4.221939E-1,-1.0951539E0,-4.2749688E-1,4.3410957E-1,1.8438451E0,1.955469E-1,4.8383787E-1,-8.107015E-1,3.0403233E-1,-2.246855E-1,-1.601688E-1,-5.1119554E-1,-5.4182135E-2,-7.4810094E-1,9.0079534E-1,9.047969E-2,-2.866403E-1,-8.9659184E-2,-8.323843E-2,5.255629E-1,1.4957596E-1,-4.770956E-1,2.0006244E-1,8.5500306E-1,-3.1574675E-1,9.53806E-2,-3.0333135E-1,1.0383856E0],"categories":[],"categories_nodes":[],"categories_segments":[],"categories_sizes":[],"default_left":[true,true,false,true,true,true,true,true,true,true,true,true,true,true,true,true,true,true,true,true,true,true,true,true,true,true,true,true,true,true,true,true,true,false,false,false,false,false,false,false,false,false,false,false,false,false,false,false,false,false,false,false,false,false,false,false,false,false,false,false,false,false,false,false,false],"id":11,"left_children":[1,3,-1,5,7,9,11,13,15,17,19,21,23,25,27,29,31,33,35,37,39,41,43,45,47,49,51,53,55,57,59,61,63,-1,-1,-1,-1,-1,-1,-1,-1,-1,-1,-1,-1,-1,-1,-1,-1,-1,-1,-1,-1,-1,-1,-1,-1,-1,-1,-1,-1,-1,-1,-1,-1],"loss_changes":[1.4505486E1,2.4458008E0,0E0,3.3256693E0,3.588129E0,1.1240926E1,6.484922E0,2.1412625E0,3.8311505E0,9.251176E0,5.244917E0,6.5791497E0,3.4759903E0,5.401977E0,2.7870674E0,4.16881E0,2.6070833E0,2.4600475E1,5.6876674E0,1.092865E0,2.4418595E0,1.2156658E1,7.6713934E0,1.1466589E1,3.7413387E0,4.561161E0,3.788125E0,2.7097044E0,4.7874413E0,4.3408556E0,3.4552464E0,1.5666478E0,2.0782323E0,0E0,0E0,0E0,0E0,0E0,0E0,0E0,0E0,0E0,0E0,0E0,0E0,0E0,0E0,0E0,0E0,0E0,0E0,0E0,0E0,0E0,0E0,0E0,0E0,0E0,0E0,0E0,0E0,0E0,0E0,0E0,0E0],"parents":[2147483647,0,0,1,1,3,3,4,4,5,5,6,6,7,7,8,8,9,9,10,10,11,11,12,12,13,13,14,14,15,15,16,16,17,17,18,18,19,19,20,20,21,21,22,22,23,23,24,24,25,25,26,26,27,27,28,28,29,29,30,30,31,31,32,32],"right_children":[2,4,-1,6,8,10,12,14,16,18,20,22,24,26,28,30,32,34,36,38,40,42,44,46,48,50,52,54,56,58,60,62,64,-1,-1,-1,-1,-1,-1,-1,-1,-1,-1,-1,-1,-1,-1,-1,-1,-1,-1,-1,-1,-1,-1,-1,-1,-1,-1,-1,-1,-1,-1,-1,-1],"split_conditions":[8.7842107E-1,5E-1,-2.8917432E-1,8.416742E-2,1.249E3,4.0678352E1,4.2277777E-1,5.1023203E-1,1.8235E3,5E-1,5E-1,4.1168976E1,4.558857E2,5.0540936E-1,5E-1,5E-1,5.75E1,5E-1,7.7E2,3.2933508E2,5E-1,5E-1,5E-1,4.2257915E1,6.172222E-1,5.027035E-1,2.95E1,6.47E2,9.95E2,4.75E1,1.69903E3,2.875E3,5E-1,6.3330865E-1,-9.778831E-2,-1.5870719E-1,3.900376E-2,-1.2665819E-1,-3.285462E-1,-1.2824906E-1,1.3023287E-1,5.531536E-1,5.8664072E-2,1.4515136E-1,-2.4321045E-1,9.12097E-2,-6.7405656E-2,-4.8050642E-2,-1.5335867E-1,-1.6254641E-2,-2.244303E-1,2.702386E-1,2.7143907E-2,-8.599209E-2,-2.6897756E-2,-2.497153E-2,1.5766887E-1,4.487279E-2,-1.431287E-1,6.0018733E-2,2.5650093E-1,-9.472403E-2,2.861418E-2,-9.099941E-2,3.115157E-1],"split_indices":[15,5,0,15,1,0,15,15,1,4,4,0,1,15,2,2,0,2,1,1,10,4,6,0,15,15,0,1,1,0,1,1,8,0,0,0,0,0,0,0,0,0,0,0,0,0,0,0,0,0,0,0,0,0,0,0,0,0,0,0,0,0,0,0,0],"split_type":[0,0,0,0,0,0,0,0,0,0,0,0,0,0,0,0,0,0,0,0,0,0,0,0,0,0,0,0,0,0,0,0,0,0,0,0,0,0,0,0,0,0,0,0,0,0,0,0,0,0,0,0,0,0,0,0,0,0,0,0,0,0,0,0,0],"sum_hessian":[1.9278065E3,1.9099548E3,1.7851717E1,5.502252E2,1.3597295E3,1.1936302E2,4.308622E2,1.191816E3,1.6791347E2,6.684341E1,5.2519615E1,3.970489E1,3.9115732E2,7.8863495E2,4.0318115E2,1.16837654E2,5.1075806E1,1.5880802E1,5.09626E1,2.2963573E1,2.9556042E1,2.328837E1,1.6416521E1,1.7467087E2,2.1648645E2,7.6504706E2,2.3587849E1,2.814967E2,1.2168443E2,8.2772484E1,3.406517E1,4.7661705E1,3.4141016E0,5.7653475E0,1.0115454E1,2.6849258E1,2.4113344E1,4.7816935E0,1.8181879E1,2.663718E1,2.9188612E0,5.060645E0,1.8227726E1,7.906265E0,8.510256E0,6.3763012E1,1.1090786E2,1.804526E2,3.6033848E1,7.5644635E2,8.600744E0,8.685016E0,1.4902833E1,1.4578035E2,1.3571637E2,1.0803142E2,1.3653015E1,7.069425E1,1.2078234E1,2.1147453E1,1.2917716E1,3.579519E1,1.1866515E1,1.240997E0,2.1731048E0],"tree_param":{"num_deleted":"0","num_feature":"16","num_nodes":"65","size_leaf_vector":"0"}},{"base_weights":[-6.7747824E-2,-6.0950756E-2,-9.434681E-1,-6.33508E-2,4.7672254E-1,-9.247778E-2,-2.5022868E-2,6.980027E-1,-3.1650758E-1,-5.9946835E-2,-1.8592225E-1,-1.9891707E-2,-5.7324046E-1,8.3710396E-1,1.7032975E-1,-6.397346E-2,8.5956395E-1,1.4840676E-1,-2.2957839E-1,-3.235526E-2,1.8852115E-1,-8.371397E-1,8.1404224E-2,1.2960745E0,2.1887746E-1,-8.489298E-2,1.4284715E-1,1.3052312E0,-8.947944E-2,4.334626E-3,7.149788E-1,-3.543414E-2,-2.953073E-1,-1.7980706E-2,-4.4512796E-1,-4.3885306E-2,5.205507E-1,-1.9477697E-1,3.1791022E-1,-3.6122993E-1,7.419501E-1],"categories":[],"categories_nodes":[],"categories_segments":[],"categories_sizes":[],"default_left":[true,true,false,true,true,true,true,true,false,true,true,true,true,true,false,true,true,true,true,true,true,false,true,false,true,false,false,false,false,false,false,false,false,false,false,false,false,false,false,false,false],"id":12,"left_children":[1,3,-1,5,7,9,11,13,-1,15,17,19,21,23,-1,25,27,29,31,33,35,-1,37,-1,39,-1,-1,-1,-1,-1,-1,-1,-1,-1,-1,-1,-1,-1,-1,-1,-1],"loss_changes":[1.1192503E1,2.4517488E0,0E0,2.0842772E0,1.705251E0,3.2160625E0,2.2627213E0,3.6563396E-1,0E0,2.9761481E0,4.0284805E0,2.089282E0,1.3570447E0,1.1986265E0,0E0,3.4147954E0,1.6010149E0,2.626593E0,3.0835152E0,4.48701E0,3.5261822E0,0E0,2.6145822E-1,0E0,1.3085169E0,0E0,0E0,0E0,0E0,0E0,0E0,0E0,0E0,0E0,0E0,0E0,0E0,0E0,0E0,0E0,0E0],"parents":[2147483647,0,0,1,1,3,3,4,4,5,5,6,6,7,7,9,9,10,10,11,11,12,12,13,13,15,15,16,16,17,17,18,18,19,19,20,20,22,22,24,24],"right_children":[2,4,-1,6,8,10,12,14,-1,16,18,20,22,24,-1,26,28,30,32,34,36,-1,38,-1,40,-1,-1,-1,-1,-1,-1,-1,-1,-1,-1,-1,-1,-1,-1,-1,-1],"split_conditions":[8.7842107E-1,8.1166667E-1,-2.8304043E-1,5E-1,6.05E1,5E-1,7.572222E-1,5E-1,-9.495228E-2,5E-1,5E-1,5E-1,7.916666E-1,5E-1,5.1098928E-2,5.15E1,4.2E1,3.75E1,2.85E1,6.527717E-1,4.3105263E-1,-2.5114194E-1,3.9E1,3.8882238E-1,8.474269E-1,-2.5467895E-2,4.2854145E-2,3.9156938E-1,-2.6843833E-2,1.3003878E-3,2.1449365E-1,-1.06302425E-2,-8.8592194E-2,-5.394212E-3,-1.335384E-1,-1.3165592E-2,1.5616523E-1,-5.8433093E-2,9.537307E-2,-1.08368985E-1,2.2258504E-1],"split_indices":[15,15,0,9,0,2,15,2,0,3,12,14,15,8,0,0,0,0,0,15,15,0,0,0,15,0,0,0,0,0,0,0,0,0,0,0,0,0,0,0,0],"split_type":[0,0,0,0,0,0,0,0,0,0,0,0,0,0,0,0,0,0,0,0,0,0,0,0,0,0,0,0,0,0,0,0,0,0,0,0,0,0,0,0,0],"sum_hessian":[1.8890184E3,1.8755308E3,1.3487678E1,1.8680743E3,7.456451E0,1.0606384E3,8.07436E2,5.92395E0,1.5325004E0,7.8796466E2,2.726737E2,8.0097534E2,6.4606166E0,4.224035E0,1.6999155E0,7.854555E2,2.5091543E0,3.1215868E1,2.4145786E2,7.565752E2,4.4400124E1,4.4057918E0,2.054825E0,1.794994E0,2.429041E0,7.138413E2,7.16142E1,1.4519918E0,1.0571624E0,2.5690697E1,5.5251703E0,6.1460472E1,1.7999738E2,7.3212305E2,2.4452168E1,2.6628878E1,1.7771244E1,1.0292971E0,1.0255278E0,1.2984349E0,1.130606E0],"tree_param":{"num_deleted":"0","num_feature":"16","num_nodes":"41","size_leaf_vector":"0"}},{"base_weights":[-4.887598E-2,-4.355861E-2,-9.2016196E-1,-4.1012455E-2,-3.7316182E-1,-4.526455E-2,3.4210575E-1,9.505311E-2,-6.756062E-1,-4.190572E-2,-4.7499162E-1,9.991045E-2,9.587032E-1,4.9855968E-1,-7.112885E-1,-9.6723956E-1,-2.690116E-2,-4.9445733E-2,1.06138125E-1,-2.261123E-1,-7.9482245E-1,3.0091926E-1,-7.835561E-1,1.3132535E0,4.1998643E-1,-2.4497795E-1,8.670206E-1,4.570356E-1,-6.163863E-1,-4.072979E-2,-3.6641234E-1,4.247474E-1,-5.9192106E-2,-4.897653E-1,1.8593892E-1,-8.999555E-1,-3.1317976E-1,-2.4107209E-1,7.0941687E-1,7.8092617E-1,-1.8245369E-1,1.1761445E0,1.845291E-1],"categories":[],"categories_nodes":[],"categories_segments":[],"categories_sizes":[],"default_left":[true,true,false,true,true,true,true,true,true,true,true,true,true,true,false,false,true,true,true,true,true,true,false,false,true,false,true,false,false,false,false,false,false,false,false,false,false,false,false,false,false,false,false],"id":13,"left_children":[1,3,-1,5,7,9,11,13,15,17,19,21,23,25,-1,-1,27,29,31,33,35,37,-1,-1,39,-1,41,-1,-1,-1,-1,-1,-1,-1,-1,-1,-1,-1,-1,-1,-1,-1,-1],"loss_changes":[8.574621E0,1.5365908E0,0E0,3.006689E0,2.0541072E0,2.6025536E0,2.931581E0,2.4341357E0,1.6124356E0,2.0188482E0,9.342122E-1,3.0187664E0,5.182071E-1,1.5404804E0,0E0,0E0,1.341385E0,4.728994E0,4.646877E0,1.0978914E0,8.126736E-3,3.1575413E0,0E0,0E0,9.455459E-1,0E0,5.132916E-1,0E0,0E0,0E0,0E0,0E0,0E0,0E0,0E0,0E0,0E0,0E0,0E0,0E0,0E0,0E0,0E0],"parents":[2147483647,0,0,1,1,3,3,4,4,5,5,6,6,7,7,8,8,9,9,10,10,11,11,12,12,13,13,16,16,17,17,18,18,19,19,20,20,21,21,24,24,26,26],"right_children":[2,4,-1,6,8,10,12,14,16,18,20,22,24,26,-1,-1,28,30,32,34,36,38,-1,-1,40,-1,42,-1,-1,-1,-1,-1,-1,-1,-1,-1,-1,-1,-1,-1,-1,-1,-1],"split_conditions":[8.7842107E-1,3.55E3,-2.760486E-1,2.5985E3,4.6055555E-1,2.4975E3,5.644444E-1,4.25E1,4.35E1,1.5995E3,5.1166666E-1,5.1944447E-1,6.25E-1,3.15E1,-2.1338657E-1,-2.901719E-1,4.95E1,1.405E3,1.716E3,4.4777778E-1,6.1277777E-1,3.9722222E-1,-2.3506685E-1,3.9397606E-1,5E-1,-7.349339E-2,5E-1,1.3711068E-1,-1.849159E-1,-1.2218938E-2,-1.09923705E-1,1.2742423E-1,-1.7757632E-2,-1.4692959E-1,5.578168E-2,-2.6998666E-1,-9.395393E-2,-7.232163E-2,2.1282507E-1,2.3427786E-1,-5.473611E-2,3.5284334E-1,5.535873E-2],"split_indices":[15,1,0,1,15,1,15,0,0,1,15,15,15,0,0,0,0,1,1,15,15,15,0,0,4,0,2,0,0,0,0,0,0,0,0,0,0,0,0,0,0,0,0],"split_type":[0,0,0,0,0,0,0,0,0,0,0,0,0,0,0,0,0,0,0,0,0,0,0,0,0,0,0,0,0,0,0,0,0,0,0,0,0,0,0,0,0,0,0],"sum_hessian":[1.8584406E3,1.848211E3,1.0229461E1,1.835159E3,1.3051994E1,1.8158871E3,1.927204E1,5.3913493E0,7.660645E0,1.8028928E3,1.2994242E1,1.4671291E1,4.600748E0,3.8476326E0,1.5437168E0,4.946054E0,2.714591E0,1.7161534E3,8.6739334E1,8.26766E0,4.726582E0,1.248912E1,2.1821716E0,1.9075633E0,2.6931849E0,1.3859596E0,2.461673E0,1.614147E0,1.1004442E0,1.671324E3,4.4829548E1,2.909706E1,5.7642277E1,4.9266906E0,3.3409698E0,3.1668155E0,1.5597663E0,5.5436745E0,6.945445E0,1.498886E0,1.1942989E0,1.1964494E0,1.2652235E0],"tree_param":{"num_deleted":"0","num_feature":"16","num_nodes":"43","size_leaf_vector":"0"}},{"base_weights":[-3.5581253E-2,-3.144421E-2,-8.9316106E-1,-1.730204E-2,-9.123344E-2,-1.3393357E-2,-3.918293E-1,-1.866811E-1,-2.060107E-2,-2.0641193E-2,1.6563585E-1,6.1679965E-1,-7.9624707E-1,1.8024632E-1,-2.4765995E-1,1.1102954E-2,-3.6968145E-1,-2.3236837E-2,5.294889E-1,-1.41836E-2,2.7704313E-1,9.584659E-2,1.3036127E0,-9.0788126E-1,-3.2000065E-1,-1.1777365E-2,7.770559E-1,-1.9838007E-1,-7.036893E-1,-1.1506523E-2,9.7503465E-1,-6.200664E-1,5.5193615E-1,-2.0786414E-2,-7.7412945E-1,7.700549E-1,-7.772774E-2,2.4310736E-1,-6.727276E-1,1.1356377E-1,1.4319842E0,-6.941592E-1,7.1562207E-1,2.6719093E-1,-6.9786406E-1,9.140463E-1,-2.083612E-1,-1.0904147E-1,1.2352712E0,-1.5620989E-2,-3.0992752E-1,-8.799287E-1,-2.9876292E-1,3.209733E-1,-5.6201853E-2,1.5135766E0,2.2365062E-1,-8.0115205E-1,3.961239E-1,3.2081544E-2,9.9883217E-1],"categories":[],"categories_nodes":[],"categories_segments":[],"categories_sizes":[],"default_left":[true,true,false,true,true,true,true,true,true,true,true,true,true,true,true,true,true,true,true,true,true,true,false,false,true,true,true,true,true,true,true,true,true,false,false,false,false,false,false,false,false,false,false,false,false,false,false,false,false,false,false,false,false,false,false,false,false,false,false,false,false],"id":14,"left_children":[1,3,-1,5,7,9,11,13,15,17,19,21,23,25,27,29,31,33,35,37,39,41,-1,-1,43,45,47,49,51,53,55,57,59,-1,-1,-1,-1,-1,-1,-1,-1,-1,-1,-1,-1,-1,-1,-1,-1,-1,-1,-1,-1,-1,-1,-1,-1,-1,-1,-1,-1],"loss_changes":[6.5016227E0,1.5480373E0,0E0,2.1662242E0,2.3579984E0,1.9096253E0,6.726113E0,3.375574E0,2.2448254E0,2.029676E0,1.1512325E0,1.6419245E0,3.127513E-1,2.50672E0,2.7386718E0,4.0774937E0,4.238899E0,2.5729918E0,1.0351405E0,4.036829E0,6.523185E0,2.400192E0,0E0,0E0,1.0072042E0,3.3706496E0,2.2947662E0,2.3799176E0,6.0046864E-1,2.741785E0,1.3964891E0,2.8475304E0,9.289806E-1,0E0,0E0,0E0,0E0,0E0,0E0,0E0,0E0,0E0,0E0,0E0,0E0,0E0,0E0,0E0,0E0,0E0,0E0,0E0,0E0,0E0,0E0,0E0,0E0,0E0,0E0,0E0,0E0],"parents":[2147483647,0,0,1,1,3,3,4,4,5,5,6,6,7,7,8,8,9,9,10,10,11,11,12,12,13,13,14,14,15,15,16,16,17,17,18,18,19,19,20,20,21,21,24,24,25,25,26,26,27,27,28,28,29,29,30,30,31,31,32,32],"right_children":[2,4,-1,6,8,10,12,14,16,18,20,22,24,26,28,30,32,34,36,38,40,42,-1,-1,44,46,48,50,52,54,56,58,60,-1,-1,-1,-1,-1,-1,-1,-1,-1,-1,-1,-1,-1,-1,-1,-1,-1,-1,-1,-1,-1,-1,-1,-1,-1,-1,-1,-1],"split_conditions":[8.7842107E-1,5E-1,-2.6794833E-1,6.65E1,3.579696E1,5.65E1,4.811111E-1,5E-1,6.632441E-1,7.9511696E-1,6.015E2,5E-1,6.655556E-1,3.3972717E1,3.45E1,6.483333E-1,7.919006E-1,7.810819E-1,5E-1,5.1E2,6.144445E-1,7.05E1,3.9108384E-1,-2.7236438E-1,7.038889E-1,2.5089961E2,3.8898998E-1,4.4277775E-1,5E-1,3.791848E1,6.55E-1,5E-1,9.25E2,-6.2359245E-3,-2.3223884E-1,2.3101647E-1,-2.3318324E-2,7.293221E-2,-2.0181829E-1,3.4069132E-2,4.2959526E-1,-2.0824777E-1,2.1468663E-1,8.015728E-2,-2.0935923E-1,2.742139E-1,-6.250836E-2,-3.271244E-2,3.705814E-1,-4.686297E-3,-9.297826E-2,-2.6397863E-1,-8.9628875E-2,9.6292E-2,-1.6860556E-2,4.54073E-1,6.709519E-2,-2.4034563E-1,1.1883717E-1,9.6244635E-3,2.9964966E-1],"split_indices":[15,4,0,0,0,0,15,12,15,15,1,8,15,0,0,15,15,15,12,1,15,0,0,0,15,1,15,15,8,0,15,10,1,0,0,0,0,0,0,0,0,0,0,0,0,0,0,0,0,0,0,0,0,0,0,0,0,0,0,0,0],"split_type":[0,0,0,0,0,0,0,0,0,0,0,0,0,0,0,0,0,0,0,0,0,0,0,0,0,0,0,0,0,0,0,0,0,0,0,0,0,0,0,0,0,0,0,0,0,0,0,0,0,0,0,0,0,0,0,0,0,0,0,0,0],"sum_hessian":[1.8394725E3,1.831673E3,7.799487E0,1.4823391E3,3.4933392E2,1.4680538E3,1.42853E1,1.4786986E2,2.0146405E2,1.4117837E3,5.627009E1,3.9381905E0,1.034711E1,2.079349E1,1.2707637E2,1.8557779E2,1.588627E1,1.4061072E3,5.676582E0,2.1859673E1,3.4410416E1,2.8875294E0,1.0506611E0,7.6480484E0,2.6990619E0,1.6473425E1,4.320064E0,1.1597842E2,1.1097957E1,1.8229015E2,3.287639E0,1.2749645E1,3.1366246E0,1.4025577E3,3.5493498E0,3.8737254E0,1.8028563E0,1.617212E1,5.687553E0,3.1105787E1,3.304627E0,1.2166682E0,1.670861E0,1.1714869E0,1.5275751E0,2.2460175E0,1.4227408E1,1.7322559E0,2.5878084E0,4.439E1,7.158842E1,6.9151564E0,4.182801E0,2.0868925E1,1.6142122E2,1.3241743E0,1.9634647E0,1.1000893E1,1.7487522E0,1.9454061E0,1.1912184E0],"tree_param":{"num_deleted":"0","num_feature":"16","num_nodes":"61","size_leaf_vector":"0"}},{"base_weights":[-2.5707798E-2,-2.2480967E-2,-8.619224E-1,-6.6072255E-2,-4.4231317E-3,2.0587412E-1,-8.982972E-2,4.0579548E-1,-1.3253616E-2,4.2720222E-1,-4.8703882E-1,-2.9545474E-1,-6.469606E-2,9.990248E-1,9.690133E-2,1.20519705E-1,-3.2713294E-2,1.832933E-1,6.377952E-1,-1.5035425E-1,-7.6452047E-1,-1.21711515E-1,-6.768549E-1,5.4307866E-1,-7.535554E-2,1.292197E0,-7.856553E-2,-2.6913998E-1,3.7816682E-1,3.1171447E-1,2.9593905E-2,-1.7400709E-1,-9.129919E-3,3.167244E-1,-6.878275E-1,1.7357028E0,3.6797455E-1,-5.1675725E-1,7.4603623E-1,-8.808075E-1,-1.2549704E-1,-2.4176851E-1,1.648818E0,-3.0514744E-1,-9.8663765E-1,1.059875E0,6.1550558E-2,-8.437287E-2,4.1882652E-1,4.843144E-1,1.6863053E0,-6.935879E-1,1.2890978E-1,5.452544E-1,-2.2524682E-1,5.664364E-2,8.5591304E-1,-6.04154E-1,9.2717074E-2,-3.162291E-1,-3.523569E-2,6.1175925E-1,-1.6431995E-2],"categories":[],"categories_nodes":[],"categories_segments":[],"categories_sizes":[],"default_left":[true,true,false,true,true,true,true,true,true,true,true,true,true,true,true,true,true,true,true,true,true,true,true,true,true,true,false,true,true,true,true,true,true,false,false,false,false,false,false,false,false,false,false,false,false,false,false,false,false,false,false,false,false,false,false,false,false,false,false,false,false,false,false],"id":15,"left_children":[1,3,-1,5,7,9,11,13,15,17,19,21,23,25,27,29,31,33,35,37,39,41,43,45,47,49,-1,51,53,55,57,59,61,-1,-1,-1,-1,-1,-1,-1,-1,-1,-1,-1,-1,-1,-1,-1,-1,-1,-1,-1,-1,-1,-1,-1,-1,-1,-1,-1,-1,-1,-1],"loss_changes":[4.904401E0,1.431376E0,0E0,3.4599373E0,4.6677995E0,6.817853E0,2.5162017E0,4.8790703E0,3.2864134E0,1.5883436E0,9.034836E-1,3.4397225E0,2.8812423E0,3.0049505E0,2.054196E0,2.7783134E0,3.669139E0,2.1689286E0,4.519587E0,2.411996E0,3.153484E-1,8.419908E0,1.5891514E0,1.8455803E0,1.9592578E0,1.5018759E0,0E0,1.5802894E0,1.2459351E0,7.1104107E0,4.447362E0,3.0975852E0,4.2948604E0,0E0,0E0,0E0,0E0,0E0,0E0,0E0,0E0,0E0,0E0,0E0,0E0,0E0,0E0,0E0,0E0,0E0,0E0,0E0,0E0,0E0,0E0,0E0,0E0,0E0,0E0,0E0,0E0,0E0,0E0],"parents":[2147483647,0,0,1,1,3,3,4,4,5,5,6,6,7,7,8,8,9,9,10,10,11,11,12,12,13,13,14,14,15,15,16,16,17,17,18,18,19,19,20,20,21,21,22,22,23,23,24,24,25,25,27,27,28,28,29,29,30,30,31,31,32,32],"right_children":[2,4,-1,6,8,10,12,14,16,18,20,22,24,26,28,30,32,34,36,38,40,42,44,46,48,50,-1,52,54,56,58,60,62,-1,-1,-1,-1,-1,-1,-1,-1,-1,-1,-1,-1,-1,-1,-1,-1,-1,-1,-1,-1,-1,-1,-1,-1,-1,-1,-1,-1,-1,-1],"split_conditions":[8.7842107E-1,3.812557E-1,-2.5857672E-1,2.34E-4,4.0073755E-1,5E-1,3.6397958E2,4.25E2,2.45E1,3.1371809E1,2.75E1,4.067469E1,3.682243E2,4.091002E1,5E-1,4.6944445E-1,2.988236E2,2.95E1,3.3101273E1,2.45E1,5.45E1,4.0554016E1,3.2933508E2,5E-1,6.25E1,5E-1,-2.356966E-2,7.9E2,4.25E1,4.5944446E-1,4.861111E-1,3.7680428E1,3.000984E2,9.501732E-2,-2.0634827E-1,5.207108E-1,1.1039237E-1,-1.5502718E-1,2.2381088E-1,-2.6424226E-1,-3.7649114E-2,-7.253055E-2,4.9464542E-1,-9.154423E-2,-2.959913E-1,3.1796253E-1,1.8465169E-2,-2.5311863E-2,1.2564796E-1,1.4529432E-1,5.058916E-1,-2.0807637E-1,3.8672935E-2,1.6357633E-1,-6.757405E-2,1.6993092E-2,2.5677392E-1,-1.812462E-1,2.7815124E-2,-9.4868734E-2,-1.0570708E-2,1.8352778E-1,-4.9295984E-3],"split_indices":[15,15,0,1,15,2,1,1,0,0,0,0,1,0,9,15,1,0,0,0,0,0,1,5,0,1,0,1,0,15,15,0,1,0,0,0,0,0,0,0,0,0,0,0,0,0,0,0,0,0,0,0,0,0,0,0,0,0,0,0,0,0,0],"split_type":[0,0,0,0,0,0,0,0,0,0,0,0,0,0,0,0,0,0,0,0,0,0,0,0,0,0,0,0,0,0,0,0,0,0,0,0,0,0,0,0,0,0,0,0,0,0,0,0,0,0,0,0,0,0,0,0,0,0,0,0,0,0,0],"sum_hessian":[1.8237545E3,1.8177668E3,5.9876156E0,5.316688E2,1.286098E3,4.2099514E1,4.8956934E2,2.6154222E1,1.2599438E3,3.2198303E1,9.901213E0,5.215123E1,4.374181E2,8.190404E0,1.796382E1,1.5934583E2,1.100598E3,1.5785683E1,1.641262E1,5.1700015E0,4.7312107E0,3.6735733E1,1.5415498E1,6.6785264E0,4.3073956E2,6.2821193E0,1.9082849E0,7.8243084E0,1.013951E1,5.057362E1,1.0877221E2,1.5651282E2,9.4408514E2,1.424081E1,1.5448723E0,2.16606E0,1.424656E1,3.9705412E0,1.1994605E0,3.6826847E0,1.048526E0,3.521154E1,1.5241941E0,7.909703E0,7.505795E0,2.6419778E0,4.0365486E0,4.238351E2,6.90445E0,2.7905853E0,3.491534E0,3.4272752E0,4.397033E0,8.016182E0,2.1233287E0,3.5185802E1,1.5387819E1,9.076307E0,9.96959E1,7.666388E1,7.984893E1,1.0011798E1,9.3407336E2],"tree_param":{"num_deleted":"0","num_feature":"16","num_nodes":"63","size_leaf_vector":"0"}},{"base_weights":[-1.886333E-2,-1.6338106E-2,-8.262893E-1,6.565944E-2,-2.5602182E-2,-5.0445753E-1,7.8556255E-2,-5.533823E-2,1.1073589E-2,-7.95377E-1,5.4639976E-2,-8.3177024E-4,1.7097169E-1,-9.305253E-2,4.7523092E-2,1.076558E-1,-4.4881836E-2,-9.8381005E-2,1.8952827E-1,1.1191466E0,9.0326585E-2,-8.837766E-2,-7.037103E-1,1.3867612E-1,-5.5848725E-2,8.988891E-2,6.993165E-1,-1.813109E-1,2.0267523E-3,5.0463457E-2,-2.0786288E-1,-2.4939395E-1,4.3226027E-1,1.3600018E0,1.8261197E-1,-6.141917E-1,1.4908287E-1,-5.7189345E-2,-1.7623378E-1,-2.6503962E-1,-8.065955E-1,3.738636E-1,5.0820485E-2,1.7839208E0,-8.9422904E-2,7.955309E-2,1.0199676E0,-8.1708056E-1,1.6217456E0,-9.4664775E-2,-5.948999E-1,1.8622693E0,-1.0909469E-2],"categories":[],"categories_nodes":[],"categories_segments":[],"categories_sizes":[],"default_left":[true,true,false,true,true,true,true,true,true,false,false,true,true,true,true,true,true,true,true,true,true,true,true,true,true,true,true,true,true,false,false,false,false,false,false,false,false,false,false,false,false,false,false,false,false,false,false,false,false,false,false,false,false],"id":16,"left_children":[1,3,-1,5,7,9,11,13,15,-1,-1,17,19,21,23,25,27,29,31,33,35,37,39,41,43,45,47,49,51,-1,-1,-1,-1,-1,-1,-1,-1,-1,-1,-1,-1,-1,-1,-1,-1,-1,-1,-1,-1,-1,-1,-1,-1],"loss_changes":[3.6852756E0,1.3761892E0,0E0,1.3922229E0,1.7744416E0,7.272645E-1,1.326283E0,3.489575E0,3.9450748E0,0E0,0E0,1.8426462E0,6.286029E0,1.8153791E0,2.2850647E0,2.7516992E0,2.959242E0,1.0795448E0,3.6899576E0,1.2087631E0,3.323243E0,1.7815213E0,5.2554607E-3,2.6406925E0,7.1990075E0,2.428747E0,1.2037248E1,4.183301E0,8.323527E0,0E0,0E0,0E0,0E0,0E0,0E0,0E0,0E0,0E0,0E0,0E0,0E0,0E0,0E0,0E0,0E0,0E0,0E0,0E0,0E0,0E0,0E0,0E0,0E0],"parents":[2147483647,0,0,1,1,3,3,4,4,5,5,6,6,7,7,8,8,11,11,12,12,13,13,14,14,15,15,16,16,17,17,18,18,19,19,20,20,21,21,22,22,23,23,24,24,25,25,26,26,27,27,28,28],"right_children":[2,4,-1,6,8,10,12,14,16,-1,-1,18,20,22,24,26,28,30,32,34,36,38,40,42,44,46,48,50,52,-1,-1,-1,-1,-1,-1,-1,-1,-1,-1,-1,-1,-1,-1,-1,-1,-1,-1,-1,-1,-1,-1,-1,-1],"split_conditions":[8.7842107E-1,5E-1,-2.4788679E-1,2.795E-1,3.7737423E1,3.55E1,4.3196636E-1,9.895E2,4.2257915E1,-2.3861311E-1,1.6391994E-2,5E-1,4.44495E-1,9.611745E2,2.85E1,4.2075985E1,3.8991718E2,5E-1,2.25E1,4.45E1,4.6511567E-1,3.235294E1,2.55E1,1.16E3,9.995E2,7.366667E-1,4.5222223E-1,3.6740897E2,3.91644E2,1.5139038E-2,-6.2358867E-2,-7.481819E-2,1.2967809E-1,4.0800056E-1,5.4783594E-2,-1.8425752E-1,4.4724863E-2,-1.7156804E-2,-5.2870136E-2,-7.951189E-2,-2.4197866E-1,1.1215909E-1,1.5246146E-2,5.351763E-1,-2.6826872E-2,2.3865929E-2,3.0599028E-1,-2.4512418E-1,4.865237E-1,-2.8399434E-2,-1.7846997E-1,5.5868083E-1,-3.2728408E-3],"split_indices":[15,12,0,1,0,0,15,1,0,0,0,2,15,1,0,0,1,13,0,0,15,0,0,1,1,15,15,1,1,0,0,0,0,0,0,0,0,0,0,0,0,0,0,0,0,0,0,0,0,0,0,0,0],"split_type":[0,0,0,0,0,0,0,0,0,0,0,0,0,0,0,0,0,0,0,0,0,0,0,0,0,0,0,0,0,0,0,0,0,0,0,0,0,0,0,0,0,0,0,0,0,0,0,0,0,0,0,0,0],"sum_hessian":[1.8130764E3,1.8084407E3,4.635659E0,1.8295903E2,1.6254817E3,3.2040899E0,1.7975494E2,8.9738745E2,7.2809424E2,1.8295155E0,1.3745744E0,9.7225716E1,8.252923E1,6.5670184E2,2.4068561E2,2.6674808E2,4.6134616E2,6.460323E1,3.2622482E1,5.459728E0,7.7069496E1,6.528487E2,3.8531344E0,1.2772047E2,1.1296513E2,2.600898E2,6.658272E0,1.1730647E2,3.440397E2,2.7608109E1,3.6995125E1,1.160685E1,2.1015633E1,3.9831805E0,1.4765471E0,5.205049E0,7.186445E1,4.8302805E2,1.6982066E2,1.4114063E0,2.441728E0,3.3849827E1,9.387064E1,1.0902244E0,1.1187491E2,2.5830484E2,1.7849673E0,2.5615323E0,4.09674E0,9.800375E1,1.930272E1,1.388677E0,3.42651E2],"tree_param":{"num_deleted":"0","num_feature":"16","num_nodes":"53","size_leaf_vector":"0"}},{"base_weights":[-1.384933E-2,-1.1855559E-2,-7.865621E-1,-1.0126438E-2,-4.5348635E-1,1.008794E-2,-4.434715E-2,-7.5393254E-1,2.6238868E-1,-2.6846334E-2,4.493224E-2,7.007867E-2,-6.731912E-2,-1.7324787E-1,-8.6571425E-1,-1.282341E-2,-4.772599E-1,5.457755E-2,-2.2495668E-1,-1.1996821E-1,2.2212929E-1,4.0772548E-1,-7.74824E-2,-3.7820734E-2,1.968204E-1,-5.8558375E-1,6.146877E-2,4.1326293E-4,1.15418844E-1,-9.5307624E-1,-1.0310353E-2,-3.908148E-2,-6.067144E-1,6.9641805E-1,-1.3979371E-1,-8.622625E-2,7.3950386E-1,-8.6800866E-2,3.9192498E-1],"categories":[],"categories_nodes":[],"categories_segments":[],"categories_sizes":[],"default_left":[true,true,false,true,true,true,true,true,false,true,true,true,true,false,false,true,true,true,true,true,true,true,true,false,false,false,false,false,false,false,false,false,false,false,false,false,false,false,false],"id":17,"left_children":[1,3,-1,5,7,9,11,13,-1,15,17,19,21,-1,-1,23,25,27,29,31,33,35,37,-1,-1,-1,-1,-1,-1,-1,-1,-1,-1,-1,-1,-1,-1,-1,-1],"loss_changes":[2.7685242E0,1.3695321E0,0E0,1.2410748E0,1.7023453E0,1.4532412E0,1.7558401E0,1.8659973E-1,0E0,3.4572492E0,1.5245559E0,3.259367E0,2.7126474E0,0E0,0E0,2.799652E0,1.0005572E0,1.8509865E0,3.1535249E0,1.9595125E0,1.0825694E1,1.9961692E0,2.4158409E0,0E0,0E0,0E0,0E0,0E0,0E0,0E0,0E0,0E0,0E0,0E0,0E0,0E0,0E0,0E0,0E0],"parents":[2147483647,0,0,1,1,3,3,4,4,5,5,6,6,7,7,9,9,10,10,11,11,12,12,15,15,16,16,17,17,18,18,19,19,20,20,21,21,22,22],"right_children":[2,4,-1,6,8,10,12,14,-1,16,18,20,22,-1,-1,24,26,28,30,32,34,36,38,-1,-1,-1,-1,-1,-1,-1,-1,-1,-1,-1,-1,-1,-1,-1,-1],"split_conditions":[8.7842107E-1,5E-1,-2.3596863E-1,5E-1,5.2666664E-1,5.995E2,5.035E2,3.8E1,7.8716606E-2,5.241118E2,6.538889E-1,4.232456E-1,1.95E1,-5.1974364E-2,-2.5971428E-1,6.1611116E-1,6.1611116E-1,3.5261612E1,6.6626275E-1,4.25E1,5.3079665E-1,8.95E2,6.25E1,-1.1346221E-2,5.904612E-2,-1.7567512E-1,1.8440632E-2,1.2397888E-4,3.4625653E-2,-2.8592288E-1,-3.093106E-3,-1.1724445E-2,-1.8201433E-1,2.0892543E-1,-4.1938115E-2,-2.5867876E-2,2.2185117E-1,-2.6040262E-2,1.175775E-1],"split_indices":[15,7,0,8,15,1,1,0,0,1,15,15,0,0,0,15,15,0,15,0,15,1,0,0,0,0,0,0,0,0,0,0,0,0,0,0,0,0,0],"split_type":[0,0,0,0,0,0,0,0,0,0,0,0,0,0,0,0,0,0,0,0,0,0,0,0,0,0,0,0,0,0,0,0,0,0,0,0,0,0,0],"sum_hessian":[1.8020813E3,1.7984563E3,3.6250749E0,1.7924612E3,5.9951105E0,1.1272771E3,6.651841E2,4.185382E0,1.8097287E0,5.473385E2,5.799386E2,1.1087137E2,5.543127E2,1.0872421E0,3.0981395E0,5.318099E2,1.5528601E1,5.6069806E2,1.9240503E1,4.9372303E1,6.149906E1,1.0791402E1,5.435213E2,4.7588617E2,5.5923702E1,1.2856525E1,2.6720755E0,2.9715817E2,2.635399E2,3.5973654E0,1.5643138E1,4.3263184E1,6.1091185E0,2.6217558E1,3.5281506E1,4.6333613E0,6.1580405E0,5.337408E2,9.780499E0],"tree_param":{"num_deleted":"0","num_feature":"16","num_nodes":"39","size_leaf_vector":"0"}},{"base_weights":[-1.0782553E-2,-9.196979E-3,-7.4349856E-1,-7.1880133E-3,-2.8860396E-1,-1.0085963E-2,2.7755353E-1,9.026815E-2,-5.733807E-1,-7.389733E-3,-3.0683914E-1,-3.1143543E-1,4.6131822E-1,4.0077046E-1,-6.3928896E-1,-8.8570863E-1,-1.2424509E-2,-5.96115E-3,-3.9010233E-1,-1.03864565E-1,-6.354243E-1,-5.743556E-1,2.742449E-1,6.660606E-2,6.70775E-1,-2.003531E-1,6.587036E-1,-3.2693025E-1,3.9297497E-1,-1.1408633E-2,9.745909E-2,-6.81208E-1,2.0325351E-1,3.5161725E-1,-3.744664E-1,-8.643468E-1,-8.253529E-2,-1.630225E-1,-7.027618E-1,6.7906076E-1,-6.063155E-1,1.346172E-1,9.075139E-1,8.677317E-1,1.4762227E-1],"categories":[],"categories_nodes":[],"categories_segments":[],"categories_sizes":[],"default_left":[true,true,false,true,true,true,true,true,true,true,true,true,true,true,false,false,true,true,true,true,true,true,false,true,true,false,true,false,false,false,false,false,false,false,false,false,false,false,false,false,false,false,false,false,false],"id":18,"left_children":[1,3,-1,5,7,9,11,13,15,17,19,21,23,25,-1,-1,27,29,31,33,35,37,-1,39,41,-1,43,-1,-1,-1,-1,-1,-1,-1,-1,-1,-1,-1,-1,-1,-1,-1,-1,-1,-1],"loss_changes":[2.080671E0,1.0049089E0,0E0,1.4733934E0,1.4307652E0,1.4100852E0,2.090868E0,1.6943201E0,1.2912164E0,9.5463824E-1,9.9237573E-1,9.082303E-1,1.1222992E0,9.177405E-1,0E0,0E0,5.9672135E-1,9.841113E-1,1.2601177E0,1.4880644E0,6.70877E-1,8.0219984E-2,0E0,2.886089E0,1.0343409E0,0E0,2.7566206E-1,0E0,0E0,0E0,0E0,0E0,0E0,0E0,0E0,0E0,0E0,0E0,0E0,0E0,0E0,0E0,0E0,0E0,0E0],"parents":[2147483647,0,0,1,1,3,3,4,4,5,5,6,6,7,7,8,8,9,9,10,10,11,11,12,12,13,13,16,16,17,17,18,18,19,19,20,20,21,21,23,23,24,24,26,26],"right_children":[2,4,-1,6,8,10,12,14,16,18,20,22,24,26,-1,-1,28,30,32,34,36,38,-1,40,42,-1,44,-1,-1,-1,-1,-1,-1,-1,-1,-1,-1,-1,-1,-1,-1,-1,-1,-1,-1],"split_conditions":[8.7842107E-1,3.55E3,-2.2304958E-1,2.875E3,4.6055555E-1,2.4975E3,3.9722222E-1,4.25E1,4.35E1,5E-1,5.1166666E-1,4E1,5E-1,3.15E1,-1.9178669E-1,-2.657126E-1,5.466667E-1,1.5995E3,5.2666664E-1,3.45E1,6.1277777E-1,2.55E1,8.2273476E-2,3.65E1,3.35E1,-6.010593E-2,5E-1,-9.807908E-2,1.178925E-1,-3.42259E-3,2.9237729E-2,-2.043624E-1,6.0976055E-2,1.0548518E-1,-1.1233992E-1,-2.5930405E-1,-2.4760587E-2,-4.8906755E-2,-2.1082856E-1,2.0371823E-1,-1.8189466E-1,4.038516E-2,2.722542E-1,2.6031953E-1,4.4286683E-2],"split_indices":[15,1,0,1,15,1,15,0,0,7,15,0,8,0,0,0,15,1,15,0,15,0,0,0,0,0,2,0,0,0,0,0,0,0,0,0,0,0,0,0,0,0,0,0,0],"split_type":[0,0,0,0,0,0,0,0,0,0,0,0,0,0,0,0,0,0,0,0,0,0,0,0,0,0,0,0,0,0,0,0,0,0,0,0,0,0,0,0,0,0,0,0,0],"sum_hessian":[1.7958265E3,1.7929591E3,2.8673542E0,1.781178E3,1.1781133E1,1.7641876E3,1.6990395E1,5.3484626E0,6.4326696E0,1.7493186E3,1.4868997E1,3.8751857E0,1.311521E1,4.06784E0,1.2806225E0,3.7601662E0,2.6725035E0,1.7438248E3,5.493745E0,1.0004862E1,4.8641353E0,2.68789E0,1.1872958E0,5.0037856E0,8.1114235E0,1.2884028E0,2.7794375E0,1.6139635E0,1.05854E0,1.6574132E3,8.64117E1,3.5862424E0,1.9075022E0,3.6171017E0,6.38776E0,3.0414865E0,1.8226486E0,1.1794035E0,1.5084864E0,2.614811E0,2.3889747E0,2.9650095E0,5.1464143E0,1.4773706E0,1.3020669E0],"tree_param":{"num_deleted":"0","num_feature":"16","num_nodes":"45","size_leaf_vector":"0"}},{"base_weights":[-8.287373E-3,-7.012253E-3,-6.982213E-1,-5.4655285E-3,-3.581981E-1,5.871278E-3,-5.444126E-2,-5.036797E-1,2.2970179E-1,-3.39409E-3,7.738565E-2,-6.73495E-2,4.261301E-1,-1.7177777E-1,-8.38832E-1,5.5218274E-3,-1.2812497E-1,2.9339534E-1,1.657191E-3,-5.4267686E-2,-4.4220045E-1,1.09385E0,-9.1993935E-2,-5.334888E-1,3.6001965E-1,2.0897683E-2,-4.071989E-2,-8.37413E-2,-6.073381E-1,4.483208E-2,5.014229E-1,-6.4916156E-2,2.532956E-1,-6.1852865E-2,8.049713E-1,-7.479886E-1,2.0280378E-1,-5.687092E-1,1.8829017E0,-6.825078E-1,2.9867572E-1,-6.734071E-1,-1.3916042E-1],"categories":[],"categories_nodes":[],"categories_segments":[],"categories_sizes":[],"default_left":[true,true,false,true,true,true,true,true,false,true,true,true,true,true,false,true,true,true,true,true,true,true,true,true,false,false,false,false,false,false,false,false,false,false,false,false,false,false,false,false,false,false,false],"id":19,"left_children":[1,3,-1,5,7,9,11,13,-1,15,17,19,21,23,-1,25,27,29,31,33,35,37,39,41,-1,-1,-1,-1,-1,-1,-1,-1,-1,-1,-1,-1,-1,-1,-1,-1,-1,-1,-1],"loss_changes":[1.5720807E0,9.704764E-1,0E0,9.9051434E-1,7.857827E-1,9.604343E-1,2.1087942E0,5.893743E-1,0E0,1.4284437E0,2.7190523E0,1.5815401E0,3.1823227E0,1.0712202E0,0E0,8.534483E-1,1.7716795E0,2.2086732E0,2.0954404E0,2.119158E0,2.301756E0,6.2782326E0,1.5737402E0,7.860422E-2,0E0,0E0,0E0,0E0,0E0,0E0,0E0,0E0,0E0,0E0,0E0,0E0,0E0,0E0,0E0,0E0,0E0,0E0,0E0],"parents":[2147483647,0,0,1,1,3,3,4,4,5,5,6,6,7,7,9,9,10,10,11,11,12,12,13,13,15,15,16,16,17,17,18,18,19,19,20,20,21,21,22,22,23,23],"right_children":[2,4,-1,6,8,10,12,14,-1,16,18,20,22,24,-1,26,28,30,32,34,36,38,40,42,-1,-1,-1,-1,-1,-1,-1,-1,-1,-1,-1,-1,-1,-1,-1,-1,-1,-1,-1],"split_conditions":[8.7842107E-1,7.35E1,-2.0946641E-1,5E-1,8.2E1,1.249E3,6.45E1,6.95E2,6.891054E-2,1.0075E3,1.405E3,7.143651E-1,5.0388885E-1,5E-1,-2.5164962E-1,4.2257915E1,6.1277777E-1,4.4777778E-1,5.65E-1,7.048538E-1,7.919006E-1,2.1555555E-1,6.65E1,4.81E2,1.080059E-1,6.269305E-3,-1.2215967E-2,-2.5122391E-2,-1.8220143E-1,1.3449625E-2,1.5042686E-1,-1.9474847E-2,7.598868E-2,-1.8555861E-2,2.4149139E-1,-2.2439659E-1,6.0841136E-2,-1.7061277E-1,5.6487054E-1,-2.0475236E-1,8.9602716E-2,-2.0202214E-1,-4.174813E-2],"split_indices":[15,0,0,4,0,1,0,1,0,1,1,15,15,2,0,0,15,15,15,15,15,15,0,1,0,0,0,0,0,0,0,0,0,0,0,0,0,0,0,0,0,0,0],"split_type":[0,0,0,0,0,0,0,0,0,0,0,0,0,0,0,0,0,0,0,0,0,0,0,0,0,0,0,0,0,0,0,0,0,0,0,0,0,0,0,0,0,0,0],"sum_hessian":[1.7915321E3,1.7892354E3,2.2966585E0,1.7824008E3,6.834648E0,1.4480818E3,3.34319E2,5.5936904E0,1.2409577E0,1.2828313E3,1.6525047E2,3.2641138E2,7.9076176E0,3.5704267E0,2.0232637E0,1.1981423E3,8.4688965E1,4.2149086E1,1.2310138E2,3.1651035E2,9.901032E0,2.969531E0,4.9380865E0,2.1231499E0,1.447277E0,8.99573E2,2.9856934E2,7.858531E1,6.1036525E0,1.9757364E1,2.2391722E1,9.793403E1,2.5167355E1,3.146606E2,1.8497437E0,6.6084075E0,3.2926247E0,1.0456209E0,1.9239101E0,1.6687218E0,3.2693648E0,1.0447228E0,1.0784271E0],"tree_param":{"num_deleted":"0","num_feature":"16","num_nodes":"43","size_leaf_vector":"0"}},{"base_weights":[-6.352379E-3,-5.3136954E-3,-6.5204364E-1,1.3521473E-2,-3.4587108E-2,-1.5724031E-3,2.9552552E-1,-3.3058622E-1,-1.979105E-2,1.1901673E-2,-2.7189478E-1,1.8384998E-1,1.1694982E0,-7.5967425E-1,-1.4490925E-1,-4.9685603E-3,-2.716994E-1,-1.5242903E-2,1.378409E-1,-3.7373158E-1,3.920527E-1,1.0547028E0,8.144778E-2,-1.790863E-2,1.8120912E0,-9.6652687E-1,-2.889202E-1,2.3509915E-1,-4.7730783E-1,-1.2919643E-2,4.330822E-1,-7.044829E-1,-8.350566E-2,-2.2751964E-3,-3.1125942E-1,2.3278901E-1,-6.890457E-2,-5.618995E-1,4.5514625E-2,9.9208343E-1,-2.4399094E-1,-6.4975524E-1,1.799274E0,2.892914E-1,-4.0634033E-1,5.9153193E-1,-6.4939624E-1,5.594072E-1,-8.445242E-1,7.6968616E-1,-1.6148236E-1,3.73126E-1,-6.377036E-1,3.6219556E-3,-2.6703116E-1,-1.0898065E-1,1.2322396E0,-3.1433246E-1,-9.2026454E-1,7.601959E-1,-1.889164E-1],"categories":[],"categories_nodes":[],"categories_segments":[],"categories_sizes":[],"default_left":[true,true,false,true,true,true,true,true,true,true,true,true,true,true,true,true,true,true,true,true,true,true,true,true,false,false,true,true,true,true,true,true,true,false,false,false,false,false,false,false,false,false,false,false,false,false,false,false,false,false,false,false,false,false,false,false,false,false,false,false,false],"id":20,"left_children":[1,3,-1,5,7,9,11,13,15,17,19,21,23,25,27,29,31,33,35,37,39,41,43,45,-1,-1,47,49,51,53,55,57,59,-1,-1,-1,-1,-1,-1,-1,-1,-1,-1,-1,-1,-1,-1,-1,-1,-1,-1,-1,-1,-1,-1,-1,-1,-1,-1,-1,-1],"loss_changes":[1.196022E0,9.855606E-1,0E0,4.630969E0,3.058187E0,3.7679079E0,5.179733E0,2.5390327E0,2.4911103E0,3.3709977E0,3.4673598E0,4.3905463E0,4.6685743E0,6.7571115E-1,3.199778E0,2.2049015E0,2.9609158E0,3.1148546E0,3.448197E0,3.425281E0,2.9210043E0,7.7656627E0,4.781133E0,1.5863347E0,0E0,0E0,2.5557861E0,2.6842737E0,2.0614927E0,2.61195E0,5.0233192E0,6.453643E-1,2.5425768E0,0E0,0E0,0E0,0E0,0E0,0E0,0E0,0E0,0E0,0E0,0E0,0E0,0E0,0E0,0E0,0E0,0E0,0E0,0E0,0E0,0E0,0E0,0E0,0E0,0E0,0E0,0E0,0E0],"parents":[2147483647,0,0,1,1,3,3,4,4,5,5,6,6,7,7,8,8,9,9,10,10,11,11,12,12,13,13,14,14,15,15,16,16,17,17,18,18,19,19,20,20,21,21,22,22,23,23,26,26,27,27,28,28,29,29,30,30,31,31,32,32],"right_children":[2,4,-1,6,8,10,12,14,16,18,20,22,24,26,28,30,32,34,36,38,40,42,44,46,-1,-1,48,50,52,54,56,58,60,-1,-1,-1,-1,-1,-1,-1,-1,-1,-1,-1,-1,-1,-1,-1,-1,-1,-1,-1,-1,-1,-1,-1,-1,-1,-1,-1,-1],"split_conditions":[8.7842107E-1,4.9977252E-1,-1.956131E-1,4.9077848E-1,5.0540936E-1,4.8216373E-1,1.75E3,3.05E1,5.95E1,4.583333E-1,4.85E1,2.15E1,5E-1,9.25E2,4.1447845E1,5.75E1,4.97E2,4.5134503E-1,4.7055554E-1,8.9600964E2,5.25E1,4E2,8.95E2,1.9245E3,5.436274E-1,-2.8995806E-1,1.025E3,6.125E2,3.0526245E2,1.725E3,5.816667E-1,5E-1,5.655E2,-6.825589E-4,-9.337783E-2,6.9836706E-2,-2.0671371E-2,-1.6856985E-1,1.3654388E-2,2.9762504E-1,-7.319728E-2,-1.9492657E-1,5.397822E-1,8.6787425E-2,-1.219021E-1,1.7745958E-1,-1.9481888E-1,1.6782215E-1,-2.5335726E-1,2.3090586E-1,-4.844471E-2,1.11937806E-1,-1.9131109E-1,1.0865867E-3,-8.010935E-2,-3.2694194E-2,3.6967188E-1,-9.429974E-2,-2.760794E-1,2.2805879E-1,-5.6674924E-2],"split_indices":[15,15,0,15,15,15,1,0,0,15,0,0,8,1,0,0,1,15,15,1,0,1,1,1,0,0,1,1,1,1,15,5,1,0,0,0,0,0,0,0,0,0,0,0,0,0,0,0,0,0,0,0,0,0,0,0,0,0,0,0,0],"split_type":[0,0,0,0,0,0,0,0,0,0,0,0,0,0,0,0,0,0,0,0,0,0,0,0,0,0,0,0,0,0,0,0,0,0,0,0,0,0,0,0,0,0,0,0,0,0,0,0,0,0,0,0,0,0,0,0,0,0,0,0,0],"sum_hessian":[1.7874929E3,1.7856288E3,1.8642014E0,1.086858E3,6.987707E2,1.0325848E3,5.427325E1,3.2250378E1,6.665203E2,9.844704E2,4.8114433E1,4.919723E1,5.0760217E0,8.806869E0,2.3443508E1,6.3044415E2,3.607612E1,8.106288E2,1.7384161E2,4.209498E1,6.019455E0,4.197876E0,4.4999355E1,2.123771E0,2.9522507E0,5.386749E0,3.4201202E0,1.1074973E1,1.2368536E1,6.2015814E2,1.0286017E1,1.0101836E1,2.5974283E1,7.7757306E2,3.3055744E1,1.19044365E2,5.479724E1,2.8819723E1,1.3275257E1,2.8093748E0,3.21008E0,1.3149837E0,2.8828921E0,3.1839615E1,1.31597395E1,1.1129497E0,1.0108211E0,1.3507992E0,2.0693212E0,4.316109E0,6.7588644E0,1.7521557E0,1.061638E1,5.831812E2,3.6976917E1,6.6434455E0,3.6425717E0,4.472291E0,5.629545E0,2.1948752E0,2.3779408E1],"tree_param":{"num_deleted":"0","num_feature":"16","num_nodes":"61","size_leaf_vector":"0"}},{"base_weights":[-5.5008437E-3,-1.9613837E-3,-1.518798E-1,-3.300407E-3,1.0637074E0,-7.0261335E-1,-1.8388823E-2,-8.406309E-3,1.2561963E-1,-2.015929E-1,-9.430812E-1,1.6470858E-1,-3.62348E-1,-4.7632637E-3,-3.2018417E-1,1.797248E-2,5.770853E-1,4.2764288E-1,-7.5723886E-1,5.7230584E-2,9.425526E-1,-6.0072905E-1,-8.7778433E-4,-6.1435844E-3,9.9002904E-1,3.4409437E-1,-4.7492638E-1,9.3142524E-2,-6.0885733E-1,1.0263466E0,2.4361832E-1,5.33643E-1,-1.376711E-1,-8.7720317E-1,2.567113E-2,-3.1026644E-1,4.751344E-1,-2.7951118E-2,2.1840565E-2,-6.229829E-1,9.952563E-1,2.1537389E-1,-6.658508E-1,-3.36654E-2,6.1605865E-1,-9.644805E-1,-1.2526909E-1,1.3733953E0,1.13866754E-1,6.374147E-1,-8.94958E-1,-1.7944549E-1,9.811384E-1,1.0283217E-2,-6.855697E-1,5.718076E-1,-5.9057575E-1,1.4189966E-1,-5.629544E-1],"categories":[],"categories_nodes":[],"categories_segments":[],"categories_sizes":[],"default_left":[true,true,true,true,false,true,true,true,true,true,false,true,true,true,true,true,true,false,false,true,false,true,true,true,false,true,true,true,true,true,true,true,true,false,true,true,false,false,false,false,false,false,false,false,false,false,false,false,false,false,false,false,false,false,false,false,false,false,false],"id":21,"left_children":[1,3,5,7,-1,9,11,13,15,17,-1,19,21,23,25,27,29,-1,-1,31,-1,33,35,37,-1,39,41,43,45,47,49,51,53,-1,55,57,-1,-1,-1,-1,-1,-1,-1,-1,-1,-1,-1,-1,-1,-1,-1,-1,-1,-1,-1,-1,-1,-1,-1],"loss_changes":[9.250121E-1,2.493273E0,3.0860133E0,1.148796E0,0E0,7.9744005E-1,2.261088E0,1.9045265E0,3.2208843E0,1.6979429E0,0E0,1.9106296E0,1.0727586E0,2.2851515E0,2.1541817E0,2.6350136E0,1.6629286E0,0E0,0E0,2.0894284E0,0E0,1.322155E0,1.023897E0,1.0127071E0,0E0,3.289409E0,2.2689924E0,3.3181436E0,9.0965605E-1,1.4677572E0,4.44445E0,2.252933E0,1.3205073E0,0E0,1.4380717E0,5.6112796E-1,0E0,0E0,0E0,0E0,0E0,0E0,0E0,0E0,0E0,0E0,0E0,0E0,0E0,0E0,0E0,0E0,0E0,0E0,0E0,0E0,0E0,0E0,0E0],"parents":[2147483647,0,0,1,1,2,2,3,3,5,5,6,6,7,7,8,8,9,9,11,11,12,12,13,13,14,14,15,15,16,16,19,19,21,21,22,22,23,23,25,25,26,26,27,27,28,28,29,29,30,30,31,31,32,32,34,34,35,35],"right_children":[2,4,6,8,-1,10,12,14,16,18,-1,20,22,24,26,28,30,-1,-1,32,-1,34,36,38,-1,40,42,44,46,48,50,52,54,-1,56,58,-1,-1,-1,-1,-1,-1,-1,-1,-1,-1,-1,-1,-1,-1,-1,-1,-1,-1,-1,-1,-1,-1,-1],"split_conditions":[7.208539E-1,7.198726E-1,7.389181E-1,5E-1,3.191122E-1,3.35E1,5.99E2,6.8233037E-1,6.1263156E-1,7.328081E-1,-2.8292438E-1,5.19553E2,9.995E2,6.8187547E-1,3.59242E2,4.7473684E-1,6.6421056E-1,1.2829287E-1,-2.2717167E-1,7.572222E-1,2.827658E-1,5E-1,5E-1,3.7737423E1,2.9700872E-1,3.55E1,2.95E1,3.95E1,4.42E2,4.55E2,3.75E1,2.65E1,5.15E1,-2.6316097E-1,5E-1,7.6970756E-1,1.4254032E-1,-8.385336E-3,6.5521696E-3,-1.8689488E-1,2.985769E-1,6.461217E-2,-1.9975525E-1,-1.0099621E-2,1.848176E-1,-2.8934416E-1,-3.758073E-2,4.1201863E-1,3.416003E-2,1.9122441E-1,-2.6848742E-1,-5.383365E-2,2.9434153E-1,3.0849653E-3,-2.0567092E-1,1.7154229E-1,-1.7717274E-1,4.2569898E-2,-1.6888633E-1],"split_indices":[15,15,15,14,0,0,1,15,15,15,0,1,1,15,1,15,15,0,0,15,0,14,4,0,0,0,0,0,1,1,0,0,0,0,4,15,0,0,0,0,0,0,0,0,0,0,0,0,0,0,0,0,0,0,0,0,0,0,0],"split_type":[0,0,0,0,0,0,0,0,0,0,0,0,0,0,0,0,0,0,0,0,0,0,0,0,0,0,0,0,0,0,0,0,0,0,0,0,0,0,0,0,0,0,0,0,0,0,0,0,0,0,0,0,0,0,0,0,0,0,0],"sum_hessian":[1.7849595E3,1.7438074E3,4.115206E1,1.7426146E3,1.1927097E0,7.1969166E0,3.3955143E1,1.6771266E3,6.548812E1,2.9301713E0,4.266745E0,2.2499357E1,1.1455788E1,1.6587596E3,1.836691E1,5.371917E1,1.1768952E1,1.4821234E0,1.4480479E0,2.0711182E1,1.7881753E0,6.5043907E0,4.951397E0,1.6574536E3,1.3059694E0,3.2389705E0,1.5127941E1,4.872717E1,4.992002E0,4.1287346E0,7.6402173E0,5.5084534E0,1.5202727E1,4.234863E0,2.2695282E0,3.2119536E0,1.7394434E0,9.3153033E2,7.2592334E2,1.32074E0,1.9182305E0,3.249846E0,1.1878095E1,3.9970005E1,8.757164E0,2.303569E0,2.688433E0,2.6251662E0,1.5035686E0,6.0038476E0,1.6363697E0,2.3548985E0,3.1535552E0,1.2742878E1,2.4598498E0,1.2414397E0,1.0280885E0,1.3086544E0,1.9032993E0],"tree_param":{"num_deleted":"0","num_feature":"16","num_nodes":"59","size_leaf_vector":"0"}},{"base_weights":[-4.1258424E-3,-3.3446301E-3,-5.831823E-1,-4.0701665E-3,6.324154E-1,-2.271746E-3,-2.9856727E-1,-4.4640717E-3,1.8263642E-1,1.004611E-1,-7.723803E-1,1.2630718E-2,-3.3707287E-2,6.7499626E-1,-1.9563083E-1,-4.4053423E-1,7.2015285E-1,-9.0408725E-1,-1.2588477E-1,1.8824978E-2,-2.5300923E-1,-2.225589E-2,-2.1776944E-1,1.0014509E0,-3.3609694E-1,-4.9399832E-1,2.999459E-1,-7.8770226E-1,1.423296E-1,9.4951406E-2,1.0533974E0],"categories":[],"categories_nodes":[],"categories_segments":[],"categories_sizes":[],"default_left":[true,true,false,true,false,true,true,true,true,true,true,true,true,true,true,true,true,false,false,false,false,false,false,false,false,false,false,false,false,false,false],"id":22,"left_children":[1,3,-1,5,-1,7,9,11,13,15,17,19,21,23,25,27,29,-1,-1,-1,-1,-1,-1,-1,-1,-1,-1,-1,-1,-1,-1],"loss_changes":[8.039519E-1,8.236909E-1,0E0,9.415843E-1,0E0,7.180548E-1,2.117772E0,8.7503767E-1,3.997624E0,2.5777204E0,3.160386E-1,1.8227183E0,1.356157E0,3.3873038E0,1.9983946E0,9.6610814E-1,6.3382804E-1,0E0,0E0,0E0,0E0,0E0,0E0,0E0,0E0,0E0,0E0,0E0,0E0,0E0,0E0],"parents":[2147483647,0,0,1,1,3,3,5,5,6,6,7,7,8,8,9,9,10,10,11,11,12,12,13,13,14,14,15,15,16,16],"right_children":[2,4,-1,6,-1,8,10,12,14,16,18,20,22,24,26,28,30,-1,-1,-1,-1,-1,-1,-1,-1,-1,-1,-1,-1,-1,-1],"split_conditions":[8.7842107E-1,8.675731E-1,-1.7495468E-1,7.05E1,1.8972464E-1,6.45E1,7.25E2,5E-1,5.005555E-1,5E-1,1.55E3,5.95E1,6.5944445E-1,5E-1,5E-1,5.5E2,5E-1,-2.712262E-1,-3.7765432E-2,5.6474935E-3,-7.5902775E-2,-6.6767675E-3,-6.533083E-2,3.0043527E-1,-1.0082909E-1,-1.481995E-1,8.998377E-2,-2.3631069E-1,4.2698883E-2,2.8485423E-2,3.1601924E-1],"split_indices":[15,15,0,0,0,0,1,8,15,2,1,0,15,2,8,1,4,0,0,0,0,0,0,0,0,0,0,0,0,0,0],"split_type":[0,0,0,0,0,0,0,0,0,0,0,0,0,0,0,0,0,0,0,0,0,0,0,0,0,0,0,0,0,0,0],"sum_hessian":[1.780527E3,1.7791326E3,1.3944746E0,1.7780969E3,1.0355868E0,1.768306E3,9.790892E0,1.7485507E3,1.975547E1,5.7426286E0,4.0482635E0,1.1038424E3,6.447082E2,8.242472E0,1.1512999E1,3.2203486E0,2.52228E0,3.0321062E0,1.0161574E0,1.0795972E3,2.424519E1,6.080024E2,3.670585E1,6.237944E0,2.0045273E0,7.188355E0,4.324644E0,1.797988E0,1.4223604E0,1.3237388E0,1.198541E0],"tree_param":{"num_deleted":"0","num_feature":"16","num_nodes":"31","size_leaf_vector":"0"}},{"base_weights":[-3.2411274E-3,-2.5839044E-3,-5.4005045E-1,-4.080698E-3,2.5116843E-1,-2.2304733E-3,-6.059833E-1,4.2621928E-1,-1.2960303E-1,-4.072069E-3,5.249143E-1,-9.4396526E-1,-3.9952066E-2,-8.545143E-2,5.773323E-1,-6.9661754E-1,4.681281E-1,-2.343723E-3,-5.703491E-1,8.7750214E-1,4.5311373E-2,1.9394435E-1,-2.5000745E-1,1.8835898E-2,7.191368E-1,-3.4134223E-3,6.9599974E-1,-8.3169556E-1,-1.3437645E-1,1.450153E-1,1.1611708E0,6.3901454E-1,-6.6199386E-1,1.0792027E0,2.1000223E-1],"categories":[],"categories_nodes":[],"categories_segments":[],"categories_sizes":[],"default_left":[true,true,false,true,true,true,true,true,true,true,true,false,true,false,true,false,false,true,true,true,true,false,false,false,true,false,false,false,false,false,false,false,false,false,false],"id":23,"left_children":[1,3,-1,5,7,9,11,13,15,17,19,-1,21,-1,23,-1,-1,25,27,29,31,-1,-1,-1,33,-1,-1,-1,-1,-1,-1,-1,-1,-1,-1],"loss_changes":[6.2641305E-1,6.764549E-1,0E0,1.9685589E0,7.513847E-1,1.7150465E0,9.986186E-1,6.205758E-1,1.7008077E0,1.7205328E0,1.000286E0,0E0,1.992942E-1,0E0,4.483719E-1,0E0,0E0,1.3133565E0,4.9772024E-1,5.568013E-1,1.9600874E0,0E0,0E0,0E0,6.2115026E-1,0E0,0E0,0E0,0E0,0E0,0E0,0E0,0E0,0E0,0E0],"parents":[2147483647,0,0,1,1,3,3,4,4,5,5,6,6,7,7,8,8,9,9,10,10,12,12,14,14,17,17,18,18,19,19,20,20,24,24],"right_children":[2,4,-1,6,8,10,12,14,16,18,20,-1,22,-1,24,-1,-1,26,28,30,32,-1,-1,-1,34,-1,-1,-1,-1,-1,-1,-1,-1,-1,-1],"split_conditions":[8.7842107E-1,7.9511696E-1,-1.6201514E-1,7.810819E-1,5.35E1,7.680994E-1,7.891813E-1,5E-1,5E-1,7.572222E-1,3.25E1,-2.831896E-1,5.33E2,-2.563543E-2,2.8E1,-2.0898527E-1,1.4043844E-1,7.5256693E-1,7.638159E-1,3.77E2,4.355E2,5.818331E-2,-7.500224E-2,5.65077E-3,5E-1,-1.0240268E-3,2.0879993E-1,-2.4950868E-1,-4.031294E-2,4.3504592E-2,3.4835127E-1,1.9170438E-1,-1.9859816E-1,3.237608E-1,6.300067E-2],"split_indices":[15,15,0,15,0,15,15,5,4,15,0,0,1,0,0,0,0,15,15,1,1,0,0,0,8,0,0,0,0,0,0,0,0,0,0],"split_type":[0,0,0,0,0,0,0,0,0,0,0,0,0,0,0,0,0,0,0,0,0,0,0,0,0,0,0,0,0,0,0,0,0,0,0],"sum_hessian":[1.7784852E3,1.777314E3,1.1711767E0,1.7678699E3,9.444107E0,1.7634529E3,4.417077E0,6.38801E0,3.056097E0,1.7583024E3,5.1504064E0,2.3476093E0,2.0694678E0,1.5555198E0,4.8324904E0,1.4834465E0,1.5726506E0,1.7539532E3,4.3491397E0,2.4901152E0,2.6602912E0,1.0154569E0,1.054011E0,1.2079225E0,3.624568E0,1.7522643E3,1.6889478E0,2.151645E0,2.1974947E0,1.117006E0,1.3731091E0,1.4987825E0,1.1615087E0,1.4672389E0,2.157329E0],"tree_param":{"num_deleted":"0","num_feature":"16","num_nodes":"35","size_leaf_vector":"0"}},{"base_weights":[-2.3226996E-3,7.14376E-3,-3.8931374E-2,5.2103275E-3,1.2658606E0,-4.332266E-1,2.6320564E-2,-1.4057434E-2,5.2980606E-2,-7.05932E-1,6.334476E-1,8.7070346E-2,-1.17837936E-1,-1.2163674E-2,-7.167991E-1,2.631572E-1,2.981121E-2,-9.958427E-1,-4.2031303E-1,1.0527797E0,-3.3412382E-1,2.6777518E-1,2.8310359E-2,-6.7453855E-1,-2.5168171E-2,-3.0930283E-2,4.2419557E-2,-3.2966292E-1,3.9050335E-1,-4.9431634E-1,6.0626056E-2,-7.7785695E-1,-2.1977054E-1,1.8670783E0,-1.5033421E-1,-7.240855E-1,4.0673774E-1,9.343531E-2,9.469986E-1,5.85891E-2,-5.552072E-1,-7.854474E-1,1.1197832E-1,-4.6418685E-1,6.1514452E-2,-3.42974E-2,8.250563E-1,9.170205E-2,-9.734029E-2,-5.834757E-1,2.649567E-1,1.0292134E0,2.1915896E-1,-6.525327E-1,9.419068E-1,5.480622E-1,3.9659295E-2,-1.6212608E-1,-9.916462E-1,1.3982849E-1,-6.1582106E-1,2.5470838E-1,3.1735914E0,3.5189673E-1,-4.2973292E-1,4.114271E-1,-2.8746247E-1,3.3099133E-1,1.3498436E0,1.17810234E-1,-1.157031E-1,-6.6655153E-1,-1.6479388E-1,-8.8547814E-1,-3.4958693E-1,6.9193006E-1,-6.4294153E-1,6.476407E-1,1.4038652E-2],"categories":[],"categories_nodes":[],"categories_segments":[],"categories_sizes":[],"default_left":[true,true,true,true,false,true,true,true,true,true,true,true,true,true,false,true,true,false,true,true,true,true,true,true,true,true,true,true,true,true,true,true,true,true,true,false,false,true,true,true,true,true,false,true,true,false,false,false,false,false,false,false,false,false,false,false,false,false,false,false,false,false,false,false,false,false,false,false,false,false,false,false,false,false,false,false,false,false,false],"id":24,"left_children":[1,3,5,7,-1,9,11,13,15,17,19,21,23,25,-1,27,29,-1,31,33,35,37,39,41,43,45,47,49,51,53,55,57,59,61,63,-1,-1,65,67,69,71,73,-1,75,77,-1,-1,-1,-1,-1,-1,-1,-1,-1,-1,-1,-1,-1,-1,-1,-1,-1,-1,-1,-1,-1,-1,-1,-1,-1,-1,-1,-1,-1,-1,-1,-1,-1,-1],"loss_changes":[6.1631066E-1,3.432674E0,9.411931E0,1.3004371E0,0E0,1.5555118E1,2.7639678E0,1.3314193E0,1.9695107E0,3.0455856E0,4.856136E0,2.3474286E0,4.8142E0,1.0310932E0,0E0,3.1628397E0,5.955181E0,0E0,1.4641643E0,8.104593E0,1.4835793E0,6.342035E0,3.0093515E0,1.2503428E0,3.1232688E0,2.186145E0,1.7834141E0,1.3090067E0,3.445178E0,5.268503E0,3.5285234E0,8.660741E-1,2.3653119E0,9.381477E0,7.334123E-1,0E0,0E0,5.4867015E0,2.278512E0,1.676244E0,2.5560546E-1,2.050643E-1,0E0,3.2401876E0,1.9052662E0,0E0,0E0,0E0,0E0,0E0,0E0,0E0,0E0,0E0,0E0,0E0,0E0,0E0,0E0,0E0,0E0,0E0,0E0,0E0,0E0,0E0,0E0,0E0,0E0,0E0,0E0,0E0,0E0,0E0,0E0,0E0,0E0,0E0,0E0],"parents":[2147483647,0,0,1,1,2,2,3,3,5,5,6,6,7,7,8,8,9,9,10,10,11,11,12,12,13,13,15,15,16,16,18,18,19,19,20,20,21,21,22,22,23,23,24,24,25,25,26,26,27,27,28,28,29,29,30,30,31,31,32,32,33,33,34,34,37,37,38,38,39,39,40,40,41,41,43,43,44,44],"right_children":[2,4,6,8,-1,10,12,14,16,18,20,22,24,26,-1,28,30,-1,32,34,36,38,40,42,44,46,48,50,52,54,56,58,60,62,64,-1,-1,66,68,70,72,74,-1,76,78,-1,-1,-1,-1,-1,-1,-1,-1,-1,-1,-1,-1,-1,-1,-1,-1,-1,-1,-1,-1,-1,-1,-1,-1,-1,-1,-1,-1,-1,-1,-1,-1,-1,-1],"split_conditions":[4.4429234E1,4.4349266E1,4.598222E1,3.7737423E1,3.7975818E-1,6.155555E-1,5.512607E-1,3.701154E1,2.0970886E2,4.97E2,4.521222E1,4.85E1,5.638889E-1,9.379072E2,-2.1503973E-1,4.1401275E-2,3.1391174E2,-2.987528E-1,4.1722223E-1,5E-1,6.4111114E-1,5.0388885E-1,1.999E3,6.05E1,2.951751E2,5E-1,5.3499997E-1,5E-1,4.4327486E-1,5E-1,3.2931342E2,7.25E2,5.127778E-1,5E-1,3.6103772E2,-2.1722566E-1,1.22021325E-1,4.2833334E-1,5E-1,5E-1,5.95E1,5E-1,3.35935E-2,5.761111E-1,4.6013927E1,-1.028922E-2,2.475169E-1,2.7510617E-2,-2.9202089E-2,-1.7504272E-1,7.948702E-2,3.0876404E-1,6.574769E-2,-1.9575982E-1,2.8257206E-1,1.6441867E-1,1.1897789E-2,-4.8637826E-2,-2.9749388E-1,4.194855E-2,-1.8474633E-1,7.6412514E-2,9.5207745E-1,1.0556903E-1,-1.2891988E-1,1.23428136E-1,-8.623874E-2,9.9297404E-2,4.049531E-1,3.5343073E-2,-3.4710933E-2,-1.9996546E-1,-4.9438167E-2,-2.6564345E-1,-1.04876086E-1,2.0757903E-1,-1.9288246E-1,1.9429222E-1,4.2115957E-3],"split_indices":[0,0,0,0,0,15,15,0,1,1,0,0,15,1,0,15,1,0,15,2,15,15,1,0,1,3,15,4,15,8,1,1,15,6,1,0,0,15,9,2,0,2,0,15,0,0,0,0,0,0,0,0,0,0,0,0,0,0,0,0,0,0,0,0,0,0,0,0,0,0,0,0,0,0,0,0,0,0,0],"split_type":[0,0,0,0,0,0,0,0,0,0,0,0,0,0,0,0,0,0,0,0,0,0,0,0,0,0,0,0,0,0,0,0,0,0,0,0,0,0,0,0,0,0,0,0,0,0,0,0,0,0,0,0,0,0,0,0,0,0,0,0,0,0,0,0,0,0,0,0,0,0,0,0,0,0,0,0,0,0,0],"sum_hessian":[1.7765918E3,1.412218E3,3.6437378E2,1.4110547E3,1.1632894E0,5.0937363E1,3.134364E2,1.00599884E3,4.050559E2,4.0835556E1,1.0101807E1,2.2078957E2,9.264684E1,1.0043097E3,1.689122E0,3.9190357E1,3.6586554E2,1.9031488E1,2.1804068E1,6.986075E0,3.115732E0,5.3304604E1,1.6748497E2,1.2325312E1,8.032153E1,7.4767883E2,2.566309E2,6.6490536E0,3.25413E1,1.948056E1,3.4638498E2,6.8006096E0,1.5003458E1,3.8371322E0,3.1489425E0,2.0561144E0,1.0596175E0,4.332238E1,9.982223E0,1.600781E2,7.4068646E0,1.0803272E1,1.5220388E0,1.2526081E1,6.779545E1,7.4570544E2,1.9733819E0,1.8998257E2,6.66483E1,4.673091E0,1.9759628E0,5.8241763E0,2.6717127E1,1.8039017E1,1.4415425E0,1.3248303E1,3.331367E2,2.205869E0,4.594741E0,8.202678E0,6.8007803E0,2.2523975E0,1.5847348E0,1.032858E0,2.1160843E0,2.3567198E1,1.9755182E1,4.6671386E0,5.3150835E0,1.19722694E2,4.0355404E1,5.212876E0,2.193989E0,7.947699E0,2.8555737E0,1.2929485E0,1.1233132E1,4.132686E0,6.3662766E1],"tree_param":{"num_deleted":"0","num_feature":"16","num_nodes":"79","size_leaf_vector":"0"}},{"base_weights":[-2.9796124E-3,5.7188254E-2,-9.805448E-3,-2.3604747E-2,1.5490265E-1,1.5921629E-3,-6.056114E-2,8.526857E-2,-1.7952229E-1,-1.6628425E-1,2.0882855E-1,3.6014281E-3,-5.3021264E-1,-3.0478593E-2,-3.7952116E-1,-1.1307543E-1,3.8708457E-1,9.7114444E-2,-3.518066E-1,2.8936198E-1,-5.7959765E-1,1.07348174E-1,3.9769176E-1,1.3405309E-3,8.1862617E-1,-6.7776084E-1,-2.5426155E-1,-5.3689014E-2,6.255884E-1,-7.9888403E-1,-8.659506E-2,-4.9763426E-1,3.9391343E-2,1.5313534E-1,7.006516E-1,-1.0216599E-1,5.216651E-1,1.8020287E-3,-5.454242E-1,5.4874206E-1,-2.1455902E-1,-1.0025152E0,1.3372488E-1,1.691974E-1,-8.815033E-1,1.0812414E0,2.3564442E-1,9.830831E-2,-4.9316124E-3,1.3719043E0,5.8184505E-2,1.3580026E-1,-5.447272E-1,-3.7233144E-2,-4.7476047E-1,1.0063916E0,-1.0674629E-1,-9.371847E-1,-2.8364086E-1,1.1203775E0,-4.0697414E-1,-1.2192546E-1,-8.6022574E-1,8.893288E-1,-1.5174878E-1,5.45608E-1,-1.0297839E-1,1.0455414E-1,9.5651895E-1,5.582559E-1,-3.5514414E-1,-2.8544253E-1,7.923391E-1,5.8378744E-1,-8.6709553E-1,-6.745331E-1,-2.2383948E-1,1.3926442E-1,9.567878E-1,3.46116E-1,-1.8964694E-1,2.5685492E-1,-5.7594043E-1,-2.5359157E-2,7.594407E-1,-7.119045E-2,4.9045697E-1,-4.9469076E-2,1.6142352E-2,-6.760245E-2,2.6251554E-1,-7.2702104E-1,6.061254E-1,1.531819E0,1.0871435E-1,-6.8380827E-1,5.7690597E-1,-6.6035634E-1,2.2107747E-1,1.8055536E0,-1.7800121E-1,